	Component_1	Component_2	Component_3	Component_4	Component_5	Component_6	Component_7	Component_8	Component_9	Component_10	Component_11	Component_12	Component_13	Component_14	Component_15	Component_16	Component_17	Component_18	Component_19	Component_20	Component_21	Component_22	Component_23	Component_24	Component_25	Component_26	Component_27	Component_28	Component_29	Component_30	Component_31	Component_32	Component_33	Component_34	Component_35	Component_36	Component_37	Component_38	Component_39	Component_40	Component_41	Component_42	Component_43	Component_44	Component_45	Component_46	Component_47	Component_48	Component_49	Component_50	label
TCGA-3C-AALI-01A-11R-A41B-07	-0.091681935	0.10787553	-0.18649928	-0.08905108	0.11305973	-0.26229927	0.12567498	-0.11948881	0.014585086	0.091315635	-0.22985084	-0.08352465	0.0947771	-0.021740568999999998	0.18496959	-0.07692095	-0.05431363	0.23519622	-0.19743133	0.16133639	-0.07692374	-0.00046323862999999996	-0.10216710000000001	-0.26461437	-0.18620731	0.15911151	0.08402689	-0.06674595	0.20923942	0.015643362	-0.0005445485	0.059606805	-0.15039548	-0.18596978	0.18348958	-0.085091755	0.19784920000000003	0.18511546	0.118624635	0.029971674	0.111352175	0.21979195	-0.026098378	0.14034909	-0.085632235	0.001908465	-0.019294642	0.2059264	0.19482537	0.15249787	1.0
TCGA-3C-AALJ-01A-31R-A41B-07	-0.17933512	0.23340195	0.15130635	0.07615745	-0.16126266	-0.17467685	-0.13969994	0.03153119	0.08324285599999999	0.13766898	-0.038438715	-0.019320667	-0.18820606	-0.042469118	0.04529777	0.23656008	-0.10942142	0.23203158	0.11907208	0.15593338	-0.20197695	0.13382041	-0.29908434	-0.07913959	0.21360500000000002	0.07615688400000001	-0.19304155	0.021909672999999998	0.20001209	0.11161066	-0.039512563	0.14201027	-0.016458547	-0.13956513	0.106380954	0.032748774	0.034878135	0.1250998	0.059858594	0.09342665	-0.045429412	0.107944526	-0.17670515	-0.11400956	0.084342435	0.24303767	-0.17994371	0.15718396	0.13937959	-0.025229404	1.0
TCGA-3C-AALK-01A-11R-A41B-07	-0.20566441	0.07629258	0.13536356	-0.12590632	0.14987038	0.0012528473	-0.15129034	-0.22311102	-0.06552984	0.19094643	-0.08040622	-0.013525572	0.08732966	-0.053188846	0.11079016	0.117417306	-0.23821093	-0.09652535	-0.008066715	-0.014922426	0.08400597	-0.08647894	-0.23693663	0.06621197	-0.119170785	-0.21021082	0.09421802	-0.1615541	0.12619485	-0.090751044	0.23319389999999998	-0.08153400599999999	0.19022778	-0.01886139	0.08320131	0.13062707	0.10535726	0.17496817	-0.11626719	0.124528475	0.08055429	-0.07449076	-0.15691067	-0.27809393	-0.19157755	0.020352516	-0.103406645	0.19783853	-0.008797997	-0.29394534	1.0
TCGA-4H-AAAK-01A-12R-A41B-07	-0.09043599	0.14466475	-0.036078743999999996	-0.17978837	-0.0066227659999999995	-0.030673059	0.01324236	-0.106063806	0.03731304	0.32605156	0.012170048000000001	-0.16697137	-0.03828395	-0.19152226	-0.045443553	0.30562904	0.10107455	0.02397878	0.0031110218	0.083844155	0.06576977	0.010643194	0.15524504	-0.11181669	0.13655682	0.24369293	-0.04947343	-0.18525082	-0.07732593	-0.14593142	-0.036082324	0.16365238	-0.15091467	-0.22774488	-0.22758123	0.15567563	0.19690913	0.17442866	0.11680829	-0.00981704	-0.08620381	-0.06480458	0.034968982999999995	0.09874449	-0.14153165	0.3024091	-0.15941854	-0.10954942	-0.13442983	0.057379507	1.0
TCGA-5L-AAT1-01A-12R-A41B-07	-0.054191407000000004	0.15448510000000001	0.034845527	0.13092056	-0.011986096000000002	-0.20075387	0.21152636	0.13219602	-0.16156104	0.2163853	-0.15127639999999998	-0.07511923	0.1697662	-0.0052591669999999995	0.053281527	-0.20039847	0.12183706	-0.03177589	0.04409606	0.0016721739000000002	0.09576752	0.22142008	-0.23824625	-0.2169877	0.13271075	-0.058413327	0.21405157	0.24900323	0.10835188	-0.153103	0.051342472	-0.042807545999999995	-0.2565187	-0.05222745	0.19415902	0.023002084	-0.17668922	-0.011259941	0.07554114599999999	-0.083173215	-0.048634205	0.10136503	0.1406505	0.08188609	0.14242485	0.2796622	-0.14826968	0.040850032	0.13083418	-0.037688382	1.0
TCGA-A1-A0SB-01A-11R-A144-07	-0.27653906	0.12960318	-0.03445677	-0.04128388	-0.024710342000000003	-0.104192674	-0.10979541400000001	-0.23913324	-0.15265124	-0.103604645	-0.03670891	0.05050649	0.11237116	0.12392834	-0.115808316	-0.022527894	0.026941804	0.22377096	0.15278701	-0.07500446	0.029442014	-0.09681086	-0.08646212	0.06368324	0.02636295	0.16147192	0.13100635	-0.24734582	0.16034669	0.046027668	0.24379168	-0.1322059	0.07068071	0.18405263	0.2796247	-0.08317563	0.22759889	0.12256902	0.29705688	0.13639203	0.03566518	0.18466637	0.115144126	-0.13457315	-0.0010058577	0.10015475	0.036754697999999995	0.22124799	0.031414133	-0.07866277	1.0
TCGA-A1-A0SD-01A-11R-A115-07	0.048548765	0.2759237	-0.045950316	-0.21155737	0.20392649	-0.10305808	0.008974323000000001	-0.18470962	-0.20570378	0.055901415999999995	0.013297676999999999	-0.04059242	-0.23967022	0.08936668	0.08803233	0.09370991599999999	0.15291137	0.008638396	0.024835361	-0.017136483	-0.015184056000000001	0.115311086	0.19431852	-0.002710088	-0.08546465	0.14472967	0.13353123	-0.20242727	0.12356144	0.033674800000000005	-0.089008555	0.21462414	-0.25624815	-0.0396061	-0.21413039	0.18749213	0.029401151	-0.030374661	-0.0787408	0.2186556	0.10133369	-0.047949795	-0.07786998	0.08262954	0.22758813	-0.008591826	-0.2484361	0.26149654	-0.11623569	-0.030508941	1.0
TCGA-A1-A0SE-01A-11R-A084-07	-0.17597409	0.26463825	0.07218889	0.21710704	-0.01824192	-0.0738735	-0.0017694345	-0.1017044	-0.034676604	0.21712674	0.08492781	-0.0025592018	-0.19991139	0.09695305	0.27065477	0.0067367167	-0.10300973	0.05050876	0.046800815	-0.21912870000000004	-0.18992564	0.020373113	-0.100123785	0.07216526599999999	0.033380598	-0.08766706	0.24838513	-0.24934354	-0.10543474	0.04918787	0.12707625	0.07912029	-0.17958884	-0.18556787	0.056229275	-0.14352776	0.2816721	0.025198994	0.023103692000000002	0.052520927	-0.08489134	-0.14414994	0.024815599	-0.06631212	0.15898912	-0.13985808	-0.27989382	-0.11422352	0.10916367	-0.11716959	1.0
TCGA-A1-A0SF-01A-11R-A144-07	0.08074817	0.12404105	0.1506546	-0.0042938148	0.17538254	0.06243471	-0.22365557	-0.010247859	-0.15844482	-0.11820545	-0.21070826	-0.16499819	0.16646892	-0.17754856	0.057657864	-0.109892175	-0.03341146	-0.05368937	0.14912885	-0.18382174	0.067626655	0.15916997	-0.25701085	0.0703778	0.084355906	0.16435693	-0.1700326	-0.17700452	0.1932959	-0.11887007	0.16314931	0.015593571	0.11502042400000001	-0.035070777000000004	0.25178492	-0.03683483	0.21060924	-0.12390842	0.21080703	0.09831888	0.028700126	-0.05599947	0.1766002	-0.19449929999999999	0.090634175	0.14872622	0.20550455	-0.057833962	-0.028854676	-0.094022095	1.0
TCGA-A1-A0SG-01A-11R-A144-07	0.06753369	0.16570811	0.037465256	-0.14216094	0.037963226	0.10471783	-0.10945597	-0.19556732	-0.056516677	-0.18024188	-0.2033661	-0.030464234	0.16807611	0.021613939	0.16735846	0.108632855	0.22929049	-0.042686626	0.2319581	-0.15286656	-0.12471492599999999	-0.110539205	-0.041364618	-0.15060964	-0.11516176	0.012786618999999999	0.10766878	-0.08755349999999999	0.13991728	0.038117055	-0.21120189	0.21789548	0.12008776	0.15965341	0.09051025	0.11957857	0.1945585	0.022514546	0.051705956	0.20787856	-0.17766145	0.19109054	0.041405264	-0.24151978	0.045995902000000005	-0.08537691	0.08847181	0.2614354	0.20808718	-0.06363829	1.0
TCGA-A1-A0SH-01A-11R-A084-07	-0.051238697	-0.11836010000000001	-0.17187992	0.11831797	0.059043422000000005	0.23137549	-0.09063933	-0.16944715	0.02942277	-0.14930207	-0.14571072	-0.048493993	0.08179941	-0.036546208	-0.08584247	-0.026928447	0.28427795	-0.015237955	-0.15784721	0.07323213	0.021660341	-0.0045126409999999995	-0.19094066	-0.13305491	0.19768773	0.19954291	0.064655125	-0.15331797	0.2846568	-0.1379634	0.16195199	-0.13699047	-0.08115519	-0.21489562	0.033673555	0.17810564	0.23539166	0.0642186	-0.01711027	-0.029554137999999997	0.17466392	0.085043676	-0.117179506	-0.06367466	0.13082998	0.20813118	0.085620075	0.2184757	0.20593603	-0.075108595	1.0
TCGA-A1-A0SI-01A-11R-A144-07	-0.22383957	-0.040651083	0.0017606276	-0.037117846	0.098557696	-0.24896929999999998	0.14841995	-0.15212259	-0.15226024	0.05978819	-0.14198172	-0.12075559	0.12945044	0.25713786	-0.09401999	-0.20813452	-0.15599407	0.053304393	0.10372181	0.042818684	-0.22439322	-0.20695199	-0.20236337	0.032901093	-0.091414	0.14018361	-0.22574453	-0.15980685	-0.014849245	-0.03228079	0.013186653999999999	0.14446774	-0.06400627	-0.055439725999999995	0.20219379999999998	0.06983386	0.25894982	0.018376701999999998	0.27726308	0.15106274	-0.037769727	0.15586473	0.12534994	-0.09459278	-0.08434051	0.07359297599999999	0.20548803	0.061420295	0.03893112	0.03494676	1.0
TCGA-A1-A0SK-01A-12R-A084-07	-0.32639146	0.18547808	-0.087242536	-0.08250650000000001	0.08531280599999999	0.067501366	0.027599963999999998	-0.008073973	-0.05279458	0.2171563	-0.32103184	-0.094475	0.07381821	-0.11566758	-0.018206881	0.10691667	-0.03294884	0.048987534000000006	0.1293577	0.15648712	-0.047929775	-0.02810681	-0.18107374	-0.28504488	0.109870836	0.08315845	-0.07064797	-0.17929405	0.01377055	0.041406106	0.1264857	0.14791769	-0.040232494	-0.23984306	0.12528804	0.11641629	0.17885157	-0.042422037999999995	0.10475575	0.17082545	-0.032070953	0.07438713	-0.13123713	-0.1926664	-0.17384306	0.14798439	-0.041177195	0.08353635	0.27592286	-0.14681862	1.0
TCGA-A1-A0SM-01A-11R-A084-07	-0.053473823	0.10866956400000001	0.055513892	-0.19364601	-0.10430468	0.17974211	0.1304083	0.07557743	-0.24159741	0.23878424	0.124107935	0.06525701	-0.17318419	-0.14453292	-0.11193649	0.14998874	-0.112690695	0.12872049	0.20887968	-0.12670964	0.04757003	0.031423308	-0.23706836	-0.24383456	0.25577193	0.22297885	-0.15213826	-0.17427821	0.044067625	0.057343516	-0.007321005	0.13057743	0.017354848	-0.12826212	0.086691335	0.14472632	0.18071099999999998	-0.04431222	0.19480675	0.20261365	-0.15147051	-0.09095789	0.08276292	-0.03699315	-0.102075234	0.17081134	0.06967972	-0.0026771738	0.09460967	0.0857647	0.0
TCGA-A1-A0SN-01A-11R-A144-07	0.18259622	0.08112767	0.0040222458	-0.121014416	-0.12717389	-0.15681201	-0.16061735	0.008345162	-0.30740026	0.10258125	-0.20592968	0.044969797	-0.14112954	-0.14173566	0.16155128	-0.15899248	0.16912736	-0.016698947	-0.016874796	0.14811125	0.26286882	-0.10780522	-0.10841714	0.20424625	0.12697	0.0932056	0.08857566	0.024213245	0.10075006	-0.033527397	-0.14314748	-0.16213796	0.18311621	0.02110831	0.09863602	-0.11630373	-0.16852519	-0.015234822	0.17728937	0.24377420000000002	0.03514262	0.094893016	-0.122602776	-0.17169793	-0.20610775	0.12138318	0.08225135	0.10274061599999999	0.06892818	-0.22494708	1.0
TCGA-A1-A0SO-01A-22R-A084-07	-0.14637001	0.18293321	-0.19998606	-0.03775712	-0.06425677	-0.16438079	-0.028374437000000002	-0.13197975	-0.24370028	0.20250866	-0.09502211	-0.0076024885999999995	-0.27725327	-0.15004107	0.040075354	-0.040623862000000004	-0.06818597	0.1563558	-0.16679272	-0.12496311	-0.08662243	0.05381438	-0.17924796	-0.013230943	0.18461628	0.17579077	0.28229879999999996	-0.14232779999999998	0.21046549	-0.1364859	0.061267762999999996	-0.05314	0.07125189999999999	-0.21182626	-0.0431845	0.19110124	-0.032469727000000004	-0.14597414	0.09352115	0.12491493	0.14013252	0.13316064	-0.022971366	-0.021186838	-0.21723354	0.08023913	-0.15470093	0.19651753	0.037923284	-0.038872252999999996	1.0
TCGA-A1-A0SP-01A-11R-A084-07	-0.04230998	0.09411127	-0.20135653	0.15832911	-0.17421043	-0.13352205	0.09562249	-0.080396704	0.07996715	0.064681545	-0.27907524	-0.010732468	0.04836944	-0.14697419	0.045959435	0.110537626	-0.06663387	-0.12691322	-0.13954619	0.02608447	0.110938944	0.0041220556	-0.27566385	-0.13427302	0.20016877	0.30792025	0.113680944	-0.25874179999999997	0.20052788	-0.15004045	0.08851101	0.17180894	0.014574736999999999	0.1698386	-0.028920334	-0.013489748999999999	0.1750165	-0.14189011	-0.08734938	0.10357546	0.11505719999999998	0.11990091	0.08489857	-0.10724020000000001	-0.20214012	0.1793546	0.01392354	-0.11192864	0.18702617	0.070596874	1.0
TCGA-A1-A0SQ-01A-21R-A144-07	-0.01380333	0.170717	-0.2969007	-0.0034298485	0.21159369	0.17040393	-0.017355113999999998	-0.08324034	-0.15921849	0.22987053	-0.20393674	0.14905678	0.12796372	0.11655562	0.25795746	0.12819253	0.16865821	-0.14193824	-0.02582987	0.06214923	0.07500142	0.23814175	-0.2810123	-0.025419975	0.057774164	0.09227911	-0.028574679	-0.10824606	-0.14424668	8.980011000000001e-05	-0.05320299	0.054694265	-0.06269321	-0.13829555	0.0062094490000000006	-0.09819277	-0.06995362	0.08937197	0.100880176	0.23147316	0.17475304	0.18819982	0.018054098	-0.12261497	-0.10935645	0.109232225	-0.03156213	0.23991846	-0.16224581	-0.031262606	1.0
TCGA-A2-A04N-01A-11R-A115-07	0.16665526	-0.025950947999999998	-0.13361871	-0.18326420000000002	0.047466367	-0.19453710000000002	0.033003844	0.15254742	-0.08439985	0.27712944	-0.16841991	0.17776735	0.13082269	0.13401711	-0.14133494	0.14294466	-0.0021687557	-0.020528661	-9.186142400000001e-05	0.17042217	0.047112558	-0.02581287	0.038858752999999996	-0.11855195	0.19108419	0.009754416	0.110529065	0.021099782	0.13723102	0.022011034	-0.13610537	0.0006355365	0.07175885	-0.16660124	0.24269478	-0.17430775	0.18439351	-0.11100672	0.033472043	-0.16202103	0.088918716	0.25558284	-0.14066344	-0.20779954	0.19334994	0.26538026	-0.08835079	0.08382494	0.19340225	-0.09550143	1.0
TCGA-A2-A04P-01A-31R-A034-07	0.015495884	0.20484732	-0.09006448	0.04251108	0.08406957	0.0876719	-0.015268158	-0.02788539	-0.053078155999999994	0.020093212	0.04755058	-0.06214292	0.037952274	-0.16921245	0.09205359	0.08962344	0.14620146	0.1057144	0.11611266	-0.07975046	0.15995255	-0.12558691	-0.37529704	-0.20347823	-0.050084252	0.12678236	0.22449076	-0.2501192	-0.11525913	0.017703258	0.17416343	0.17620406	-0.08824972	-0.13448572	-0.11876579	-0.0011720669000000001	0.20705904	-0.066323295	0.07921768	0.13955589	0.14287922	-0.0943914	-0.114045225	-0.27072856	0.059773400000000004	0.19679129999999997	-0.01766021	0.15230864	0.28149262	-0.14140809	1.0
TCGA-A2-A04Q-01A-21R-A034-07	-0.22604299	-0.10921142	-0.05374674	0.2076198	-0.12453827	0.13154200000000002	-0.01694404	-0.09728357	-0.0931373	-0.015272359	0.16235560000000002	-0.044758945999999994	-0.09591206	-0.16637455	0.07791922	0.013051318999999999	-0.0017176543	0.11091692	-0.18992482	0.18503925	0.14923075	0.12153312599999999	-0.375784	-0.18452297	0.10529967400000001	0.19777074	0.13282537	-0.060995948	-0.12750994	-0.076245464	-0.08061747	0.047225215	0.067697175	-0.09132138	0.25267532	0.17471723	0.0845403	-0.13575625	0.26012075	-0.14354303	-0.051900133	0.28717402	-0.0008291134	0.09936215	0.10452917	0.08993054	-0.15085554	0.10128743	0.036604177	0.03460859	1.0
TCGA-A2-A04R-01A-41R-A109-07	0.11786572	0.04188747	0.015758159	-0.23298092	0.023493882	-0.23796152	-0.16355614	-0.20774971	-0.061442025	0.11740362	-0.10888221	0.09397925	0.15792008	0.042007655	0.18667519	0.08969877	0.0962284	0.045881726	0.16659103	-0.19008015	-0.09731149	0.19572401	-0.31189078	-0.06436043	0.038568599999999995	-0.1581035	-0.03467913	-0.28138113	0.2761304	0.14786299	-0.060681414	0.049712900000000004	-0.0576539	-0.033475716	0.08464466	0.16581285	0.1352243	-0.021345882000000004	0.055027742000000004	0.16491261	0.096364185	-0.05116274	-0.19099052	-0.16359118	0.035624052999999996	-0.07088603	-0.05256209	0.14973424	0.2357643	-0.09512545	1.0
TCGA-A2-A04T-01A-21R-A034-07	0.07469681	0.106203765	0.007331666	-0.08652714	0.040034205	0.14517336	-0.07732958	0.13806212	0.04194508	0.26317993	-0.12057078	0.14176051	-0.35437274	-0.15089428	-0.038630795	0.059230055999999996	-0.048541877000000004	0.21700856	0.035527702	0.06579921400000001	-0.0860668	-0.062988184	-0.38370538	-0.14734238	0.22705437	-0.054383017	0.09275891	0.079997905	0.12116931	-0.18936485	0.03300192	-0.015698291	-0.165905	-0.13631545	0.22678612	0.09474536	0.22517815	0.19381863	0.10242818	0.10815229	-0.08262878	0.19044791	-0.020158788	-0.11488398	0.059108555	0.11996523	0.060656565999999995	0.09264317	0.044527657000000005	-0.07950564	1.0
TCGA-A2-A04U-01A-11R-A115-07	0.026590614	0.29473948	-5.9542774e-05	0.0071064313	-0.17708278	-0.11372471599999999	0.06714621	-0.1576115	-0.17269653	0.112039976	-0.0937495	0.14247349	0.084878	-0.1737703	0.20288722	0.25158882	0.18447706	0.23668465	0.07387637	0.13951135	-0.10152158	-0.12924458	-0.028295321000000002	-0.09792735400000001	-0.008977574	0.22339818	0.1908021	-0.09827264	0.05773216	-0.22195421	-0.10348710000000001	-0.018833168	0.016524406000000002	-0.021256885	-0.112851225	-0.017127793	0.24960871	0.11827246	0.17601418	0.1945235	-0.022137575	0.039142016	-0.03738226	-0.19873974	0.029213127000000002	0.21821359	0.02877527	0.07975279	0.19941439	-0.12692562	1.0
TCGA-A2-A04V-01A-21R-A034-07	0.07997567	0.09065488	0.1061835	-0.16696724	-0.08001235	-0.23492689999999997	0.21807325	-0.16001326	-0.073832825	0.19849405	-0.08824586	0.16293381	0.20132275	-0.18466178	0.09515244	0.07941597	0.15487011	-0.058134705	-0.19678727	0.18110594	0.049031124	-0.0020707306	-0.27119032	-0.13453664	0.08453604599999999	0.019218776	0.21697845	-0.14780433	-0.08759414	-0.25542206	-0.029933998	-0.010516042	-0.08623969999999999	0.014008425	0.06544935	0.16064887	0.14254111	-0.115323715	0.059028447000000005	0.23022236	0.20714875	-0.016792506000000002	0.08661272	-0.1366696	0.0022128804	0.17644837	-0.10108278	-0.12962675	-0.20160523	-0.054704823	1.0
TCGA-A2-A04W-01A-31R-A115-07	-0.029902877	0.19720756	-0.16887712	-0.10526955	0.03464216	0.22282808	0.16068177	-0.20984814	-0.14227776	0.16499633	-0.22248520000000002	-0.051584285	-0.11779882	0.066501215	0.224568	-0.07528194	0.011788568000000001	-0.08021882	0.17039597	-0.17598139999999998	-0.13097234	0.101294935	-0.29153395	-0.12612028	0.16203128	0.15875661	-0.011138038999999999	-0.102199495	0.20261596	0.13469239	-0.054105497999999995	0.14267881	-0.15790424	-0.020720847	-0.057785425	-0.018720727	0.07343856	0.1963284	0.17230156	-0.03616714	0.039951902000000004	-0.11357894	-0.074524984	-0.170079	-0.12189637	0.09584959	0.06811494400000001	0.12917127	0.24612070000000003	-0.16605619	1.0
TCGA-A2-A04X-01A-21R-A034-07	-0.2258326	0.10170255	-0.17302902	0.18208635	0.074984804	-0.24527141	0.105491534	-0.05539897	-0.28859526	-0.0066950709999999995	-0.024305467	0.14112850000000002	-0.22735053	-0.14728168	0.14990228	0.10042285	-0.053094897	-0.033455875	-0.10342282	0.0070953434	0.08616817	0.069484524	-0.31004109999999996	0.051750767999999996	-0.015429638	-0.101062536	0.08769317	-0.19353789	0.15855075	0.039836206	-0.12033364	-0.19334821	-0.14699931	-0.11870567	0.13157831	0.11290861	-0.14149046	0.050500422999999996	-0.006419182	0.19250718	0.13310596	0.14164338	0.034188747	-0.0146566	0.15490739999999997	0.23693775	-0.22833414	0.12845376	0.107024975	-0.032507572	1.0
TCGA-A2-A04Y-01A-21R-A034-07	-0.25766358	-0.19421202	0.048246615	0.1447537	-0.07723545	-0.14753956	0.056571685	-0.21945138	-0.104287505	-0.035807215	0.10113454599999999	0.122646935	0.08319552	-0.09682865	0.25783423	-0.1905787	0.13821864	0.054860957	-0.10653829	-0.18251501	0.20318344	0.05946149	-0.2645564	-0.24022327	0.04718792	0.25863764	0.09943492	-0.106554516	0.09583274	-0.050634056	0.18884814	0.13383506	-0.19611689999999998	-0.21669975	0.02807051	0.057223774000000005	0.23720871	0.056739382000000005	0.07658855	0.020828512	-0.22024822	0.114094295	0.07968943	0.009909085	0.0376478	-0.025997046	0.04703708400000001	0.07625818	0.030432999999999998	-0.08788004	1.0
TCGA-A2-A0CK-01A-11R-A22K-07	0.14271364	0.09713571	0.20906878	-0.1377359	0.16981111	-0.06657542	0.12498525	-0.011812423999999998	-0.025808273	0.006212996	0.03881757	0.18409629	0.18202868	-0.052462664000000006	-0.02571157	0.16827855	0.111520804	0.23519343	0.16080019	0.13629593	0.073038496	-0.014766706999999999	0.06615665	0.04941263	0.22514810000000002	0.20048086	0.17803356	-0.26615170000000005	0.23108955	-0.020776795	0.15494093	0.22296795	-0.07017759	0.024653256000000002	0.20049973	-0.13374923	0.21490681	0.08444097	0.10079193	-0.14225861	-0.1328017	0.17125987	0.16320708	-0.06943043	-0.14391845	-0.15128115	0.029758862999999997	0.17719176	0.09682809	-0.031245926	1.0
TCGA-A2-A0CL-01A-11R-A115-07	-0.110844865	-0.21624182	-0.26152724	-0.025675663999999997	0.00028618373	-0.10706268	-0.19913484	0.19412702	0.12918392	0.2658534	-0.20557661	-0.029848873999999997	-0.09294912	0.054982475999999995	0.20573181	0.20185292	0.027373316	-0.017441608	-0.031493854	0.23481037	0.043956865	0.20424686	0.021514857000000002	-0.12834823	0.19939008	-0.19708052	0.1668261	-0.046512645	0.100531325	-0.18867427	0.022738047	0.15468052	-0.07640252	-0.02103582	0.19048207	-0.039426405	-0.008882963	-0.08728471	-0.12230362	0.103433825	0.03975608	0.16474578	0.16141218	-0.22005210000000003	-0.17421097	-0.0056409817000000004	0.09316100000000001	-0.11263139999999998	0.0583645	-0.15973163	1.0
TCGA-A2-A0CM-01A-31R-A034-07	0.13164525	0.2619681	-0.16948128	-0.0042246645	-0.16649719	-0.0070669726	-0.24186954	-0.07849207	-0.12723419	-0.017084833	-0.12085629	-0.07287644	-0.07659366	-0.16507907	-0.1084441	0.009286512	0.26769406	0.09292398	-0.15053734	-0.037056938	-0.037065115	0.15261327	-0.21177723	-0.04694937	0.21059228	0.18742076	-0.08133888	-0.18608367	0.30131212	-0.19420224	0.090491325	-0.15355828	-0.12007363	-0.22502959	-0.116785906	-0.13414282	-0.041736405	-0.0047880807	0.05296803	0.016067727	0.18757625	-0.08212015	0.061095662	-0.025118917	-0.20123684	0.22545174	-0.029210355	0.03264876	0.07815547	-0.08546376	1.0
TCGA-A2-A0CO-01A-13R-A22K-07	0.09726869	0.21796112	-0.039947707	0.101881035	0.13569779999999998	0.12091965	0.08006586	-0.22780631	-0.03626553	0.19379228	-0.046098314	-0.05359644	-0.26077417	-0.003979572	0.018144466	-0.09660852	-0.013536732	0.07889410000000001	0.13038255	0.031604342	-0.21011782	0.0043836953000000005	-0.18688823	0.09604288	0.18201211	-0.03797868	0.25007933	-0.128022	-0.12710635	0.18134867	-0.018704116	0.11858417	0.14015213	-0.23311928	0.19449523	-0.21140838	-0.011453257	0.15431611	0.15677994	0.25508317	-0.06617469	0.22739835	-0.16076763	0.093014814	-0.20067420000000002	0.013797885	-0.009076421999999999	-0.027043667	0.16144301	-0.021374853	1.0
TCGA-A2-A0CP-01A-11R-A034-07	-0.035930235	0.005866070300000001	-0.19372712	-0.06851906	0.14400628	0.0726985	-0.042503454	-0.14370884	-0.08784428	0.026945326000000002	-0.08565342	-0.09388374	-0.049276575	-0.064095154	-0.024280759	0.23275515	-0.23376596	-0.08522257	-0.13874972	-0.13535781	-0.109290555	0.12783201	-0.19980466	0.14397378	-0.19376725	0.21928662	0.1539876	-0.120079234	0.014253799	-0.027176652000000003	0.19263206	0.0987392	0.18869932	-0.09847208	0.04266542	0.11521077	-0.147723	0.07590076	0.062147666	0.19502339	0.1601148	-0.19478509	0.04634674	-0.2663645	-0.16547105	0.21720882	0.03341708	0.098662265	0.26998734	0.1929651	1.0
TCGA-A2-A0CQ-01A-21R-A034-07	-0.18679161	0.010099476	0.15375097	-0.26753044	0.19781627	-0.19417161	-0.031170307	0.17838684	-0.008168078	0.12004236	-0.011367493999999999	-0.09173332	-0.10566356	0.005877605	0.10619184	0.16629717	0.100274436	0.123820364	0.039778855	0.19718958	0.016236484	0.11528992	-0.27471793	-0.17898834	0.05292369	0.0037680909000000003	0.11431649	-0.22702359	0.12408003	0.06984635	0.042473912	-0.031927023	-0.09232326	-0.06757663	0.24576534	0.08978826599999999	-0.108354874	0.12680231	0.20060046	0.07970714599999999	0.09790065	-0.14929006	-0.02332859	-0.28723848	0.20824783	0.20892167	-0.012676556	-0.15885016	-0.1616361	0.0125045795	1.0
TCGA-A2-A0CR-01A-11R-A22K-07	-0.08668537	0.035105273	-0.04878082	-0.18688993	0.018224366000000002	-0.07064066	-0.093284905	-0.08041535	-0.17438735	0.10469231	-0.055958305	0.077196985	-0.09419275	0.061970305	-0.07058895	-0.15364777	-0.051793408	0.11214427	0.033229116	-0.011381108000000001	0.27992237	0.17270161	-0.35169247	-0.26357472	0.0367188	0.22817309	0.056766883	-0.12775838	0.24934353	0.08525634	0.03659202	-0.046340175	0.19906487	0.17111868	0.03861832	0.0008517100999999999	0.19490643	-0.014319723500000001	0.12938075	0.105148025	-0.12404632	0.25498593	-0.05674115	0.094616964	0.10117588	0.11996306	-0.0134543	0.20579	0.23840831	-0.15814185	1.0
TCGA-A2-A0CS-01A-11R-A115-07	-0.18702173	0.095778935	-0.22176814	-0.090188004	-0.105078384	-0.20543155	0.04418993400000001	0.14679109	-0.0008042203999999999	0.20202391	-0.21527691	0.11116101	-0.19917752	0.16824673	0.05772191	-0.12982877	-0.15821372	-0.066967	-0.21113929	-0.0026140207999999997	0.12972493	0.10339487	-0.04535892	-0.16494702	-0.05950941	0.26688959999999995	0.110565096	0.16703154	0.26256895	-0.045909002000000004	0.100860775	-0.044362955	-0.047704107999999995	-0.18376416	0.12699516	-0.10787664	0.038905982	0.2018009	0.12173542400000001	0.20013113	-0.07370956	0.2002669	-0.11278403	-0.23667510000000003	0.00019714076	-0.032875497000000004	-0.035398856	-0.06402514	0.0027955470000000002	0.15329744	1.0
TCGA-A2-A0CT-01A-31R-A056-07	-0.29857856	0.028595686000000002	-0.066987514	0.05010518	0.12584205	0.080827154	-0.06887049	-0.23647758	0.1469124	0.003051148	-0.022779739	0.0119383605	-0.116010495	-0.11752067	0.004267851	0.07805253	0.13607825	0.19834939	0.19311161	0.22550458	-0.094521835	0.2732165	-0.12233324	0.09186602	0.113001615	0.12339008	-0.11726384599999999	-0.10749607	0.05029523	-0.26423323	-0.16093537	0.20786399	-0.025778301	-0.112867765	0.09859148	0.04830456	0.15376084	0.04984059	0.008645877	0.21360698	0.10912799	0.12326908	-0.028427146	-0.32173184	0.01862315	-0.023491066	-0.09492951	0.20526055	0.025412826	-0.18767405	1.0
TCGA-A2-A0CU-01A-12R-A034-07	-0.21874134	0.26759902	-0.11938389	0.14355011	-0.21479726	-0.08948256	-0.17781466	-0.21055265	-0.2061656	0.21212535	-0.16368665	-0.05780114	0.15291701	0.10848034	0.052229505	0.04812053	-0.008160356	0.1665692	-0.08759603	-0.06945258	-0.14007133	-0.061894573	-0.2436696	0.029576156	-0.09294926	0.12589878	0.23128155	-0.21328488	0.14100924	-0.012704278999999999	0.13794409	0.15637699	0.08164450000000001	0.039165393	-0.18757221	-0.13372022	0.101945005	-0.08306353	-0.0011785546	0.1020365	-0.112700805	0.13511452	-0.015008088999999999	0.121272326	-0.060233418	0.1942335	0.20411737	0.14527322	-0.073438235	0.048727933	1.0
TCGA-A2-A0CV-01A-31R-A115-07	-0.04192129	0.1732322	0.11395361	-0.10689134	-0.028639194	-0.23140466	-0.20607257	0.058809586	-0.23049444	0.04566086	-0.0030260721999999995	0.12526113	-0.08396084599999999	-0.21176541	0.0039044992999999997	-0.12915155	0.19497899999999999	-0.10226834	-0.014495576999999999	0.19856112	-0.044764314000000006	-0.08486594	-0.24584748	-0.09239767	0.017990014	0.0600658	0.23842824	-0.25292048	0.20645326	-0.26202166	-0.104198396	0.13843939	0.068296745	0.12513901	-0.033674800000000005	-0.090356834	0.19615747	-0.042996123	0.14719073	0.091206565	0.10511192	0.0800799	-0.10752933	0.11319401	-0.13464154	-0.064675555	-0.1873809	-0.15644747	-0.21145372	-0.05745331	1.0
TCGA-A2-A0CW-01A-21R-A115-07	-0.22635831	-0.01574477	-0.16933666	-0.055853594000000006	-0.010577203	0.17612988	-0.23401934	-0.011815021	-0.045185897	0.07869613	-0.21066060000000003	-0.1117222	-0.14069676	-0.12654741	0.078961045	-0.1614043	0.017559867	0.21516542	0.15557918	0.13021421	-0.23249888	0.12957251	-0.3576841	-0.1881256	0.020730196	0.16612427	-0.11899604	-0.0171503	0.111533366	-0.20911108	-0.09708813	-0.030056553	-0.05249029400000001	-0.062139023	0.12543565	-0.18880312	0.07962442	0.24692892	-0.095484525	-0.01343694	-0.029242398	0.029191446	-0.055395965	-0.279565	-0.041296728	0.07553093	-0.036573913	0.020064672	0.13039172	0.1512601	1.0
TCGA-A2-A0CX-01A-21R-A00Z-07	-0.17971382	0.053972047	0.007746991	0.08978068	-0.12447868	0.07310099	-0.012798835	0.051976744000000005	-0.22020756	-0.0003321279	-0.24644057	-0.03227453	-0.049879845	-0.08794095	0.076679975	0.09452768	0.18003264	0.23159073	-0.09440309	0.16281688	0.21155252	-0.18062632	-0.26510809999999996	-0.03330068	0.13493335	0.24832496	0.044206385	0.028884856	0.18683001	-0.23725803	-0.049620297	-0.015619578	0.020917775	0.19737919	-0.054539196	0.017212214	0.15720491	0.021659711	0.17062850000000002	-0.044501517000000004	-0.080009915	0.0069424678	0.17823316	-0.11893039	0.15159252	0.20650320000000003	0.22405729	-0.09305681	-0.24695888	-0.11866208	1.0
TCGA-A2-A0CY-01A-12R-A034-07	-0.09508958	0.22629668	-0.024520197999999997	-0.08016577	0.16232651	-0.21775189	0.18919398	-0.1294149	-0.12722248	0.17005661	-0.25590822	0.06481005	-0.16685339999999999	-0.010614781	-0.059871834000000006	0.12987848	-0.0904647	0.04508996	-0.037954412	0.037231855	0.06454844	-0.069808945	-0.18580946	-0.19482791	0.18314275	0.045656975	0.11012111599999999	-0.0949363	0.13935454	-0.17450479	-0.16249639	-0.08481827	-0.19767620000000002	0.12069691	0.20066541	-0.060584575	0.11957888	0.11053792	0.25453043	0.046778332	0.033753514	0.22461483	0.15573338	-0.22317174	-0.020113416000000002	0.25214475	0.10533682	-0.11647379	0.009478939	0.054345854000000006	1.0
TCGA-A2-A0CZ-01A-11R-A034-07	-0.23370196	-0.19874303	-0.11369763	0.13945061	-0.10047256	0.159102	0.021367942999999997	-0.12449973	0.0031346020000000002	0.11529362	-0.16648182	0.079795115	0.18349953	-0.07687869	0.105317466	-0.24846949	-0.15135409	0.14434351	-0.039464895	-0.15512665	0.07121830400000001	0.029562177000000002	-0.1717092	0.14311817	-0.11881862	0.19989507	0.20020688	-0.20410961	0.20084031	-0.012927399	0.073811285	0.08293609	0.12997565	0.14700950000000002	-0.14147320000000002	0.124000266	0.23936047	-0.025651148	0.03242173	0.098416716	-0.020718323	0.16994677	0.07335254	-0.12511018	-0.0062541346999999995	0.009870035	-0.20560189999999998	0.11643424	0.2756573	-0.15342645	1.0
TCGA-A2-A0D0-01A-11R-A00Z-07	0.059921857	0.1791966	0.008641626	-0.015189231999999999	-0.07157118	-0.17369643	-0.047843337	-0.05081837	-0.12313012	-0.13354744	-0.28708178	0.014155843000000001	-0.09849361	-0.23531966	0.08965435	-0.052894674	0.08594223	0.0676865	-0.03463402	0.12839705	0.19404364	-0.12643138	-0.34111822	-0.22701357	0.057254016	0.30004190000000003	-0.04904514	0.05865532	0.15135956	0.09935481	0.13427071	0.09737851	0.10534443	0.19573478	0.0885633	0.051967774	0.14046797	0.043527048	0.083660565	-0.0033685407	0.05519974	0.20599122	0.04540381	-0.27056178	-0.09159428	-0.04143539	0.02464688	0.21554993	0.033707693	-0.23244041	1.0
TCGA-A2-A0D1-01A-11R-A034-07	-0.14887215	0.19606166	-0.22257756	0.022750752000000003	0.22900075	-0.13538973	-0.02992824	-0.011489586000000001	-0.20292407	-0.042289257000000004	-0.028474792999999998	0.08882524	-0.08317215	-0.035613853	-0.028248303	-0.03545558	0.023200516	-0.06668113	0.032473262	-0.044391718	0.17251636	-0.017019987	-0.22699207	-0.27585492	0.2227292	-0.11508035	0.15320770000000003	-0.28345793	0.18240634	-0.1966487	0.19480345	0.11630662	-0.15992537	-0.22439896	0.17493752	0.17573114	0.18905438	-0.026760576	-0.12618373	0.14403266	0.16355744	0.08521215	0.008978031	-0.059074447	-0.09623423	0.011579927	-0.030791922000000003	0.057280004	0.19294055	0.029714663	1.0
TCGA-A2-A0D2-01A-21R-A034-07	-0.1659871	0.20501393	-0.06467369	-0.067200355	-0.0043063070000000005	-0.20633416	-0.02991637	-0.25892508	-0.12789038	0.06789237	0.10133528	-0.11851120000000001	0.090116404	0.03138948	0.14205211	0.14090745	0.09137878599999999	-0.07266769599999999	-0.2055625	0.17425817	-0.22236109999999998	0.041033044	0.035537876	-0.23832014	0.17888132	0.15789531	0.19853893	-0.23465787	0.20708823	-0.08092554	-0.11196748	0.24817862	0.1246497	-0.20157139999999998	-0.05462448	0.11118436599999999	0.10466777	-0.04566236	-0.10891043	0.037033558	0.075197406	0.21310444	-0.014450425	0.10405894	-0.05283045	0.047733847	0.119616315	0.13129744	0.17715436	-0.13587391	1.0
TCGA-A2-A0D3-01A-11R-A115-07	-0.10722645	0.2007256	-0.09501563	-0.16101097	-0.05071667	0.21035562	0.15562193	0.1254104	-0.06004783	0.21661957	-0.086857475	-0.026308507000000002	-0.092360884	-0.14883922	-0.1689781	-0.14892557	-0.07796598	0.08070881	-0.123809285	0.088214286	-0.13428022	-0.0043532476	-0.25262967	-0.22169757	-0.14362031	0.14445044	0.064884186	-0.111966416	0.114505194	-0.21868856	-0.07187346	-0.058161918	-0.017588103	-0.24621446	0.15822402	0.15544173	-0.07690785	0.14933677	0.13161759	0.1914191	-0.07107306	0.17166932	0.19297788	0.06742041	-0.20829873	0.13785811	-0.034246802	0.23737979999999997	-0.056819323	-0.010037363	1.0
TCGA-A2-A0D4-01A-11R-A00Z-07	-0.18989682	0.22575153	-0.18487069	0.08897044	0.21869816	-0.30674598	0.109874725	-0.21800658	-0.25214410000000004	-0.10420479	0.105228215	-0.0065909596	-0.23755793	-0.15480173	0.11263813	0.13044953	0.1231238	0.22538356	-0.08069294	0.020802416	-0.155551	0.09490641	-0.28209704	0.040494572	-0.07142656	-0.01737944	-0.014474933999999998	0.052954767	0.062481713	-0.2109035	-0.09737942	-0.09422578	-0.08142044	-0.0378096	0.020563168	0.09059487	0.032036558	0.22081608	0.21752045	0.15786256	0.033008147	0.11108568	0.1786006	-0.018233621000000002	0.05770142	-0.05086017	-0.13162452	-0.036385942000000004	0.018767381	0.043964114000000006	1.0
TCGA-A2-A0EM-01A-11R-A034-07	-0.18979402	0.13303815	0.06866525	-0.14446674	-0.18736441	-0.18620321	-0.18411528	0.12634355	-0.14949854	0.21928747	-0.18928254	0.019569081999999998	-0.16527878	-0.078390285	-0.0325744	-0.023966582	-0.061582095999999996	0.05462388	0.0067633567000000006	-0.08187241	0.1265709	-0.17486197	0.19342879999999998	-0.18399774	0.018462378999999998	-0.07304425	0.2832312	-0.057284616	0.09397676599999999	-0.18974027	0.031414162	0.12595855	-0.10820445	-0.17292576	0.24085252	-0.24327318	-0.17808603	-0.09210222	0.008756381	0.16441879	0.07791969	-0.022866106	0.11812876	-0.0800395	-0.019180158	0.22333053	-0.05823628	-0.21932462	0.14845885	-0.014489395	1.0
TCGA-A2-A0EN-01A-13R-A084-07	-0.1065675	-0.12637857	0.037363525	-0.15323776	0.07232811	-0.1410629	0.12852252	0.09981478	-0.24997365	0.111444995	0.08602030599999999	-0.15131491	-0.22921413	-0.19344887	0.068148725	0.038335323	0.24810621	0.051528342000000005	-0.20029478	0.17429362	0.16513835	-0.13395366	0.013164703	-0.033904627	0.026258833999999998	0.24588355	0.06992453	-0.25405636	0.19557053	0.05029588	-0.15018111	0.126676	0.14524579999999998	-0.17226507	-0.17179978	-0.016060406	0.18609457	-0.13070509	0.03964892	-0.10897012	-0.007903973	0.15774176	-0.029609827000000002	-0.17788914	0.009748722	-0.14011592	0.19087014	-0.11184665	0.1784766	-0.0019527988	1.0
TCGA-A2-A0EO-01A-11R-A034-07	0.063010745	0.18254535	-0.21180335	-0.013538369	0.036233432999999995	-0.08089235	-0.17093919	-0.24606627	-0.12556465	-0.017094953	-0.21822353	0.10762547	-0.19973525	0.090376675	0.21951997	-0.15802768	0.0838113	0.18704033	-0.17753212	-0.04033442	0.15751424	-0.13370717	-0.34334737	0.12913567	0.15666743	-0.07797043	-0.048961498	-0.051712543	-0.13451609	-0.16442043	-0.097522125	-0.11169418	0.020807585	-0.19926149	-0.17868724	0.20882909	0.22687374	0.06438067	-0.05531361	-0.14710286	0.0061584893	0.008217934	0.113182135	-0.10201360000000001	-0.014891201000000001	-0.10076965	-0.010374238000000001	-0.13914108	0.10683131	0.088110745	1.0
TCGA-A2-A0EQ-01A-11R-A034-07	-0.08684081	0.24635473	-0.207492	0.06347229	0.08218516	-0.16077662	-0.052952795999999996	0.14487006	-0.15865244	-0.18901026	0.14234833	-0.17639512	0.111438766	-0.14808536	0.0087928865	0.08605081	-0.13993865	0.065244265	0.12581481	-0.19461610000000001	0.010353231	0.15171161	-0.049783647	-0.2590765	0.006300969	-0.051855806	0.20056848	-0.17374007	0.1810031	-0.09276957	-0.11947064	-0.17350782	0.05266626	-0.033688266	-0.058327775	-0.012235471999999999	0.13987675	0.17373902	0.24292688	5.4463948000000003e-05	-0.09287462	0.071927525	-0.11523186	-0.24233784	0.114008285	0.019998696	-0.15532564	0.18731515	0.096244745	-0.24724117	1.0
TCGA-A2-A0ER-01A-21R-A034-07	-0.22214289	0.021911679	0.12005026	-0.11129678	0.07544716	0.027252726	0.05550559	-0.06577574	-0.04884216	-0.14678565	-0.27713984	-0.15999287	-0.23321599	-0.04422345	0.15245478	0.026793808	0.2653656	0.20174287	0.04211369	0.0743865	-0.026376866000000002	0.1993132	-0.31953526	0.1963782	-0.13686547	0.11930281	-0.007938190999999999	-0.07817603	0.055760887	-0.20845297	-0.13575189	-0.22060579	0.16315201	-0.18921061	0.11242357	0.028568435	0.008288047	0.08330499	-0.03600554	0.04177545	-0.04554543	0.1530157	-0.02546774	-0.24803533	-0.01711203	-0.15923627	-0.044788968	-0.020061392	0.21654141	0.045245025	1.0
TCGA-A2-A0ES-01A-11R-A115-07	0.11974695	0.20454389999999997	0.03666587	-0.17190813	0.14518692	0.17579386	-0.21880715	-0.15343568	-0.19019729999999999	-0.03698465	-0.15044284	0.15067744	-0.15552895	0.15043412	-0.004501573	0.19520003	-0.023259686	0.19339031	0.040301245	0.053260315	0.16126908	-0.102448575	0.01194932	-0.028030287	0.18143907	0.09302260000000001	0.23218244	-0.12956513	-0.014906198999999998	0.00948569	-0.20516245	-0.103864424	0.19666468	-0.043470744000000006	0.15805360000000002	0.1810818	0.018116545	-0.022457765	-0.07475016	0.093190864	-0.12891737	0.21786387	-0.07065536	0.11789844	-0.13273026	0.18808722	0.23046462	-0.14661527	0.17909953	0.14250162	1.0
TCGA-A2-A0ET-01A-31R-A034-07	-0.023614356	-0.007654066	-0.21593757	-0.16319667	0.06909336	-0.23247458	-0.24954316	-0.089834414	0.1287768	0.100970395	-0.26988474	-0.029844059	-0.24107470000000003	-0.19403382	0.07227756	-0.006473641	0.14519729	0.17814502	-0.070002176	-0.045223843	0.17443728	0.21186498	-0.13836598	-0.23429734	0.13199462	-0.10003236	0.08303498	-0.108887926	0.12868872	0.0065813963	-0.15244661	0.14838937	-0.07499043	0.01401032	0.2617476	-0.18870872	-0.008698794000000001	0.15242682	0.12552370000000002	0.06657802	0.18752684	-0.10809664	0.06102698	-0.11932594	-0.08833084	0.022718537999999996	0.09953513	-0.16298027	0.07368928	-0.09892387	1.0
TCGA-A2-A0EV-01A-11R-A034-07	0.14982702	-0.14868446	0.17501368	-0.018907463	0.0733307	0.0031539059999999997	0.013818066	-0.08304422	-0.009595169	0.013611937	0.016135775	0.06329985	-0.01039928	0.015574638	0.26889107	0.13937606	0.13899516	-0.090813205	-0.17506072	-0.019277317	0.230965	0.114578724	-0.12452260400000001	-0.0534716	0.21442153	0.13082393	-0.13317555	-0.13538150000000002	0.09319103	0.13495989	0.10226341	0.11597632	0.15162714	0.10446311	0.17892615	0.13953318	0.21848813	0.0015485836999999999	0.28220904	-0.061970465	0.12152163	-0.14407920000000002	0.022714589	-0.20287925	-0.21980424	0.31469744	-0.0505419	0.036499176	0.24827996	0.12363192	1.0
TCGA-A2-A0EW-01A-21R-A115-07	-0.06129391	0.044428695	-0.154451	-0.13994615	-0.04472852	-0.24788517	-0.014066781	-0.20016713	-0.02642916	-0.07232665	0.15265074	0.116825335	0.10384105	0.2042981	0.12018526	0.14527382	0.11142964	0.26686633	0.046115868	-0.14151618	0.003240668	0.0059976317000000005	-0.37136286	-0.20828852	0.15874207	-0.015539983	-0.056425918	0.006371454	0.16130935	0.1855654	0.027375787000000002	0.12362615	-0.14249898	0.120847315	0.06840215	-0.094331585	0.22460848	-0.19250786	-0.059457254	-0.14420536	0.11805724	0.08195390599999999	-0.06724962599999999	0.008250005999999999	-0.28011647	0.18248503	-0.1478408	0.022239236000000003	0.060824562	-0.02230793	1.0
TCGA-A2-A0EX-01A-21R-A034-07	0.12122761	0.09440367	-0.097114496	-0.25564817	0.023427347	-0.13454388	-0.08726517	-0.0066113123	-0.13586368	0.09649485	-0.27025187	0.1276017	-0.06054991	0.04265458	0.24703486	0.07138771	0.102761604	0.11661717	-0.0056969454	0.08663497	0.16162404	0.030091045	-0.12820275	0.1556783	-0.18030284	0.25524548	0.15267698	0.17912157	-0.11202575	0.072983645	-0.019487193	0.026707636	-0.061395023	0.0034520414	0.2742529	0.016585816	-0.17026427	-0.19888005	0.24518213	-0.18365203	-0.034831867	0.27723208	0.023705186	-0.1951591	-0.051137775	-0.026969312000000002	-0.16951473	0.14323257	-0.030885374	0.057043787	1.0
TCGA-A2-A0EY-01A-11R-A034-07	-0.21409333	0.2732835	-0.04785865	0.04817704	0.098428294	-0.21977776	-0.037888143	0.069293156	-0.045654133	0.30166125	0.11389923	-0.003234851	-0.09643019	-0.058076017	-0.16147503	-0.07878478	0.04834712	0.20652474	-0.108264156	0.16462182	-0.02770997	0.019363753	-0.10950061	-0.26403812	0.1618913	0.25628725	0.06689134	-0.01239237	-0.025053582999999997	-0.020211208999999997	-0.02091201	-0.093385115	0.16196555	-0.21033299	0.20442684	-0.08893278	0.012745096000000001	-0.14893134	-0.0007243617999999999	-0.016139891	0.22746526	-0.12725152	0.15369186	-0.08854823	0.06531106	0.19085993	0.057153348	-0.16768248	0.2633164	-0.05159698	1.0
TCGA-A2-A0ST-01A-12R-A084-07	-0.17757756	-0.033652562999999996	-0.18199614	-0.027989656	-0.061742213	-0.22203544	0.025843434	-0.13167374	0.052883767000000005	0.2953825	-0.28793040000000003	-0.11086293	-0.24378544	-0.12301838400000001	-0.12894917	-0.0018812915	0.22290024	-0.15322931	-0.021456284	0.033762854	0.06770937	-0.020762809	-0.31848177	-0.05454954	0.13855669	0.16841939	-0.030042576	-0.018274428	-0.00741128	0.0869954	0.06505868599999999	0.18646778	-0.20828593	0.017010948	0.26372817	-0.04095168	0.086445466	0.050209622999999995	0.07466127	0.09701209	0.27006826	-0.006588706	-0.002337814	0.12052949	-0.16781756	0.009958243	-0.1565375	-0.12137812	-0.002484252	0.10658721	1.0
TCGA-A2-A0SU-01A-11R-A084-07	0.02976624	0.16111109	0.024426762	0.16401868	0.18017522	-0.06931648	-0.11426395	-0.100843325	-0.25767627	0.31129359999999995	0.029745677	0.09373256599999999	-0.17325562	-0.03548859	0.15728468	-0.155093	0.18515065	0.26680925	-0.18051791	-0.06533232	-0.07932734	0.007423751	-0.09848635	0.040230215	0.08761771	0.015860481000000003	-0.10722848	-0.19522811	0.12294863	-0.25174907	-0.12814017	0.22593912	0.020252874	0.17761809	0.10449282	-0.028893566000000002	0.17088073	0.036464613	0.29837167	0.0057530827	0.17883743	-0.04276427	-0.023779374	-0.008561709	-0.121502586	0.11382592	0.0076430254000000005	-0.14705245	0.03672555	0.14188291	1.0
TCGA-A2-A0SW-01A-11R-A084-07	0.06060904	0.13814512	-0.115969524	-0.12593675	0.19408803	-0.23041987	0.18139565	-0.21799934	-0.14423396	0.04883226400000001	-0.16097625	-0.02373216	0.01430837	0.0042986646	0.20630829	0.057099618	0.070166774	0.26568344	0.07415371	0.16704825	0.13878705	0.15698695	-0.15749548	0.10219242	-0.15410194	0.09527776	0.12408141	-0.2148842	0.21287738	-0.1681994	0.07407555	0.11952334	-0.10258553	-0.20494483	-0.07438794	-0.18442766	-0.12373716400000001	0.04603237	0.14483212	-0.23716314	-0.077361494	-0.032368463	0.16381234	-0.14794496	-0.10614557	-0.065829925	-0.07549906	-0.1173	0.16081679999999998	0.042199742	1.0
TCGA-A2-A0SX-01A-12R-A084-07	0.12995398	0.052750997	-0.14635457	-0.006396729	0.1732964	0.035173878	0.18862879999999999	0.0015036665	-0.098160006	0.15490012	-0.29564744	0.0011094573	-0.09764132	0.08795072	0.09373215	0.06767533	0.0817097	-0.1580511	0.16601586	0.022198645	-0.111401215	0.23423097	-0.26224068	-0.21950716	0.083082646	0.22840013	0.2033927	0.13622120000000001	0.116526455	-0.08582905	-0.16693753	0.13476582	0.18247662	-0.17530344	-0.108407125	-0.14629826	-0.06836653	-0.062163517	0.19102061	-0.10899975	0.014892785	0.0062969383	0.1708675	0.11236404	0.01573702	0.26166078	-0.08152399	0.17929901	0.005841620699999999	-0.08196613	1.0
TCGA-A2-A0SY-01A-31R-A084-07	-0.18250665	0.15292859	-0.13427258	0.19627325	-0.18396197	0.15861623	0.23022957	-0.19753483	0.15975648	-0.04423122	-0.13241547	-0.17349799	-0.13133809	-0.062953256	0.16538395	-0.1122579	0.12429759	-0.16872083	0.05355452	0.04009136	0.21969760000000002	-0.00959581	-0.19363476	-0.015833933	-0.009283976	0.2404624	-0.03240681	0.056690037	-0.22357765	-0.010690846	0.0109697245	0.11202616	0.06587711	-0.020157173	-0.011467928	-0.08507661	0.3082605	0.16691062	0.29775435	-0.08340166	0.08930311	-0.026807344	0.087755166	0.074151404	0.066438876	0.059035238	-0.005739866999999999	0.24347857	0.09441322	0.10663353	1.0
TCGA-A2-A0T0-01A-22R-A084-07	-0.20122412	0.18511818	-0.14123797	-0.15816966	-0.10716738	-0.19381726	0.18383044	0.016593132	-0.14772888	-0.044153795	-0.13105695	-0.14039457	-0.15078723	-0.019088103000000002	0.05813037	0.19055878	0.15317334	0.024564878999999998	-0.117706046	-0.10007366	0.15613566	0.011189023999999999	0.14939265	-0.13497567	-0.03703486	-0.030159192	0.14871639	0.10602426	0.21025515	-0.14692025	-0.043251168	-0.05309897	0.13718157	0.11486751	0.25091594	-0.009845072	-0.102449216	0.16481192	0.24422878	-0.07584776	-0.10059975	0.21681948	0.19140147	-0.101851545	-0.13046494	0.19620028	-0.06539246	-0.13547145	0.22723232	-0.15019688	1.0
TCGA-A2-A0T1-01A-21R-A084-07	-0.053013764000000005	0.093771115	-0.28856686	0.032222435	-0.004344344	-0.009807645	-0.14417367	-0.053878207000000004	0.10271593	-0.13264234	-0.1394191	0.06115053	-0.21974818	0.0048493524	0.25759313	0.25641254	-0.024997914	0.11507715	0.06201068	-0.116439074	0.027602144	-0.057475099999999994	-0.2550215	-0.16644359	-0.15459399	-0.07937631	-0.03403995	-0.026088571	0.23430748	-0.29786187	-0.1826959	0.052265797	0.10360336	-0.07840733	-0.14013788	-0.09540261	0.13614441	0.20575076	0.2771768	-0.0014889070999999999	-0.020509532	-0.122080125	0.22260302	0.014255965	-0.09035051599999999	0.08599005	-0.20622987	-0.036108512	-0.028320104	-0.010400719000000001	1.0
TCGA-A2-A0T2-01A-11R-A084-07	-0.20776257	-0.099036254	-0.057190295	-0.19400145	0.1252904	-0.29407522	-0.07534928	-0.1776318	-0.24849705	0.15605293	-0.018958997	0.086858355	-0.076207705	0.014602001000000002	0.05040292	0.19219361	0.13913901	0.25501302	0.058431923	0.15447216	-0.069638506	0.2055771	-0.000901982	-0.17510246	0.07908394	0.14152128	0.02276463	-0.010485344	-0.048496097	-0.03562861	0.18283927	0.11590363	0.08106357	-0.14578629999999998	-0.09009668	0.19463983	-0.055862195999999996	0.043113	0.23957446	-0.08118049	0.12674919	0.24618688	-0.020195618000000002	-0.19407381	-0.0830308	0.10445459	-0.10984076599999999	0.20125127	0.034682628	0.17678948	1.0
TCGA-A2-A0T3-01A-21R-A115-07	-0.10783548	0.28482077	-0.024713255	0.017225261999999998	0.006399576999999999	-0.241754	-0.07216178	-0.20478356	-0.058775265	0.009601700000000001	-0.30236334	-0.13073167	-0.32204682	-0.18798058	0.21017216	0.18465596	0.053612135	-0.10568433	0.09728075	0.13991977	0.22103597	0.096244395	-0.056163315	-0.007692038000000001	0.02299655	0.13379218	0.1441701	-0.09312642	-0.09620593	0.078736946	0.012492176	-0.010761992	0.08516364	-0.082914375	0.10288946	-0.09197311	0.20841839999999998	-0.04882685	-0.09836756	0.08987377	0.018233836	-0.13720797	-0.16745956	-0.11696104	0.22027762	0.19998367	-0.04171241	0.08341066	-0.1908278	-0.109726906	1.0
TCGA-A2-A0T6-01A-11R-A084-07	-0.0205843	0.22873919	-0.033321295	0.18080534	-0.115226895	-0.23433961	0.08874850000000001	0.03799398	-0.0075359466	0.15825923	-0.04849927	0.13939631	-0.16291843	-0.12678091	0.14812729	0.08023024	0.12770888	0.19456941	0.18783687	-0.078282505	0.14849672	0.11210234	-0.08143379	0.09827439	-0.034251824	0.22834733	0.19451195	-0.21262199	0.15011951	0.12919426	0.09593153	0.046135157	0.11715753400000001	-0.076218836	-0.18235698	0.045126908	0.11242398	-0.15476672	-0.008338706999999999	0.23001583	0.133448	0.18176405	-0.14302279	-0.24839048	-0.053141706	-0.09901471	-0.08989950000000001	-0.18499738	-0.17198236	0.15083994	1.0
TCGA-A2-A0T7-01A-21R-A084-07	0.08783710000000002	-0.16877274	-0.24934502	0.06685456	-0.22830331	-0.009146244	0.052374965999999995	-0.12459980000000001	-0.08644302	0.031223223999999997	-0.16424114	0.053727317999999996	-0.18598497	-0.044504575	-0.08196232	-0.1281077	0.20849471	-0.041782495	0.089459494	0.20100503	-0.068181045	0.037120663	-0.11847934	0.054876722	0.18109304	0.07175933599999999	-0.18137658	-0.20966156	-0.11772944	0.14145926	0.21772276	0.1949615	-0.12733424	-0.09405568	0.20026025	0.20406677	0.14749193	0.08694494	0.020919471999999998	0.115880914	0.16751643	0.24783887	-0.19331765	0.049346596	0.03814751	0.23742266	0.04369967	0.12162017	0.15260997	0.028242756	1.0
TCGA-A2-A0YC-01A-11R-A109-07	0.07229854	-0.11820355	0.09052616	-0.034255553	-0.06557569	-0.16432786	0.18525249	0.07029174	-0.16302945	0.09460337	-0.12264062	-0.02251312	0.12767604	0.028631812000000003	-0.1542941	-0.03953803	-0.17414206	0.11100535	0.22167253	0.17688365	-0.20344077	-0.065819606	-0.031495687	0.19373779	0.03521313	0.26725933	0.25626582	-0.21132936	0.1521289	0.06456150000000001	-0.031164237999999997	-0.016990373	0.061891157	-0.23750156	-0.073853165	0.083025835	0.21026994	0.11287180000000001	0.14923477	0.14053072	0.16107231	0.18541661	0.0083941175	-0.19858904	0.009496056	0.10902709	-0.12011531	-0.03460594	0.24952552	0.16478775	1.0
TCGA-A2-A0YD-01A-11R-A109-07	-0.06216768	0.21645005	0.20626985	0.07089708	-0.21677612	-0.23549211	-0.22108999	-0.07686330000000001	-0.07386078	0.24512962	-0.07331483	-0.037733222999999996	0.011780001000000002	-0.15219066	-0.11404528	0.060789395	0.06630804400000001	0.23456673	-0.122908965	-0.12865685	0.0065557524	-0.17564507	-0.17544007	-0.06863793	0.19245526	0.10447883	0.22531743	0.041562863	0.12729225	-0.19635056	-0.008308593000000001	0.065090396	0.10691967	-0.08942637	0.18573774	0.039406434	0.10284829999999999	-0.18326513	-0.07412214	0.19590276	-0.06685244	-0.046668045	-0.17576194	0.019967461000000002	-0.24987832	-0.09652378	-0.12988296	0.19913766	0.04679089	0.05682072	1.0
TCGA-A2-A0YE-01A-11R-A109-07	-0.23156643	0.082565986	-0.045193702	0.11564207	-0.17650916	-0.107479215	-0.20854115	-0.19620179999999998	0.026706459	0.2578056	-0.12214704	-0.12529138	-0.10648842	-0.1579233	0.18435189	-0.02337872	-0.13258182	0.17032242	0.021382047	-0.021694187	0.17698424	-0.005903099	-0.22110254	-0.15233192	0.14473197	0.09554728	0.15152754	0.11972251	0.13327703	0.058833983	0.050286017	0.059097300000000005	0.19167879	-0.101333946	0.07752957	-0.052227996	0.27899772	0.24838185	-0.07365817	0.15677208	0.08780045	0.10545584	0.09373921	-0.24310331	0.06681036	-0.080771014	0.020618262	0.17172723	-0.1405158	0.112324454	1.0
TCGA-A2-A0YF-01A-21R-A109-07	-0.25000724	0.052739434	-0.06806269999999999	-0.03483474	0.0038402502	-0.21565208	0.16524287	0.03357474	-0.06592513	-0.046807107	0.10662249	-0.058023397000000004	-0.025374409	-0.07672875400000001	0.09009594	-0.025801564	-0.09389596	-0.079281926	0.12730971	0.114847146	-0.119489774	-0.070333116	-0.29313946	-0.2467209	-0.09447761	0.29600677	-0.08441338	-0.26081517	0.25969699999999996	0.012841281000000001	-0.07287696	0.18197852	-0.024169784	0.18168217	0.14033929	-0.055787954	-0.08469219	0.0024613077	0.16969052	0.061658762	-0.04214432	0.14376761	-0.017273181999999998	-0.16175541	-0.17108248	-0.10975115	-0.20731346	0.04990285	0.28977913	0.11503513	1.0
TCGA-A2-A0YG-01A-21R-A109-07	-0.01641355	-0.17659344	0.043125107999999995	-0.0057982295	0.101739466	-0.021419639	0.12975849	-0.19983159	-0.27670953	0.15397434	-0.09628431	0.15026037	0.030861711	-0.17707287	0.19335073	-0.10042568	0.07135156	0.04831968	-0.08046438	-0.082881756	-0.19668967	0.032084692000000005	-0.26139125	0.07485152	0.10867115	0.19076553	0.27754283	-0.26252934	0.28059809999999996	0.0843373	0.1228856	0.1489858	-0.030148625	0.095735006	-0.01090025	0.10153166	-0.08949209	0.013984068999999998	0.05784803	-0.024275038	-0.010315194	0.100590706	-0.15974535	-0.106843896	0.031364232	0.29408306	-0.16541868	0.10198942	0.15022139	-0.08863847	1.0
TCGA-A2-A0YH-01A-11R-A109-07	-0.0048235143	0.13517234	-0.09485422	-0.04683406	-0.025910864	-0.236065	-0.2205923	-0.21394354	0.18162233	0.1786603	-0.20280714	0.12704374	-0.25681108	-0.087042324	0.07133035	0.18594554	-0.06759691	0.123454355	0.10455472	-0.16986239	-0.114575624	0.031420425	0.09393581	-0.18225226	0.05455547	0.13900929999999997	0.25370654	-0.024557392999999997	0.18303056	-0.06745439	-0.07530556599999999	0.17292322	0.033684194	0.086982	0.09470816	-0.16033942	0.12667528	0.18042584	0.14181566	-0.10083413	-0.07320249	-0.20992173	0.03281351	0.10457279	-0.134198	-0.048227507999999995	-0.16571729	-0.18196513	0.087350115	-0.18824545	1.0
TCGA-A2-A0YI-01A-31R-A10J-07	-0.12153411	-0.042652387	0.20316875	0.24245052	-0.062350422	-0.15588239999999998	-0.16727534	-0.11145422	-0.03744845	0.06367990400000001	-0.17869839999999998	0.0021248907	-0.24437441	-0.22473064	0.055873547	0.11523867	-0.086627744	-0.09459405	-0.050842986	0.010631149	0.23142882	-0.0038030178000000004	-0.13899381	-0.068982124	0.10305279	-0.18091373	0.14409807	-0.14779086	0.23150507	-0.08279721	-0.019278876	-0.06971436	0.015305781999999999	0.18240868	-0.10775792599999999	-0.11599895	0.20964146	0.16221213	0.17751332	0.09875087	0.14730994	-0.16470206	-0.09399408	-0.2196453	-0.1803731	0.07163094	-0.12252712	-0.17679918	0.07132005	-0.19306092	1.0
TCGA-A2-A0YJ-01A-11R-A109-07	0.006236835	0.18302100000000002	0.09020039999999999	0.14619146	0.24586782	0.15540716	0.016570365	-0.10815059	-0.14867707	0.09471439	-0.12922883	-0.0065403963	-0.13145591	0.04712744	0.27203894	0.11506087	-0.030710706	0.16209781	-0.21721052	-0.00666222	0.14271216	0.18434227	-0.31588784	-0.10892834	-0.0039336425	0.08769151	0.19260410000000003	-0.18875459	0.109723225	-0.06716799999999999	-0.07304704	0.20302779999999998	-0.05289019	-0.13371855	-0.064431675	0.1809343	0.04584873	0.14611661	0.20578761	0.070819534	0.16257586	0.16152737	0.07875655	-0.15541609	-0.07470951	0.22229423	0.10611855	-0.10346268	0.09060575	0.073524475	1.0
TCGA-A2-A0YK-01A-22R-A109-07	-0.12206778	0.07414256	-0.11022134	-0.0349452	-0.033563156000000004	0.10023405	-0.1267064	0.19527806	-0.16102324	0.27675435	0.06670369999999999	-0.18307735	0.0838342	-0.00459276	-0.04884899400000001	0.027797481000000002	0.20794287	0.0037370105	0.027607542000000002	0.12341479	0.17422222	0.2031937	0.16254772	0.1424095	-0.15614319	0.16545478	-0.01049394	-0.03905746	0.16737425	0.091510326	0.23765565	-0.04652141	0.14886062	-0.18491475	0.22551255	-0.19054422	0.028689696	0.05774834	0.21110319	-0.16936213	0.082020044	0.22333553	0.05668378	-0.21266654	-0.013191521000000001	0.14242692	-0.18419932	0.072113715	-0.19554035	-0.019134546000000002	1.0
TCGA-A2-A0YL-01A-21R-A109-07	0.08461802	-0.21509545	-0.16693358	0.14944002	-0.15566589	-0.16146182	-0.15130067	-0.021574281	0.018495595	0.16450839999999997	-0.16308084	-0.21903633	0.11789941	-0.123218015	0.20585239	-0.08665979	0.08150816	-0.102284476	-0.037362404	0.079868756	-0.24383381	0.13360141	0.022127900000000002	0.13334021	0.18492791	0.07376289999999999	0.23454577	-0.18099745	0.05754975	-0.014664499	0.08101771	-0.08990765	-0.118441395	0.24158657	0.14865673	0.116198756	0.19226778	0.11734256	0.036533800000000005	-0.06542493	0.03975549	-0.08773696	0.225225	-0.068586685	0.11070274	0.10373419	0.21597470000000002	0.14025293	0.046906925999999995	-0.23482979999999998	1.0
TCGA-A2-A0YM-01A-11R-A109-07	-0.13806662	0.072650984	-0.12813766	-0.21152078	0.023129	0.025456786000000002	-0.10101449	-0.07772688	-0.15622863	0.083253115	-0.2504772	-0.07069903599999999	-0.019083476000000002	-0.008890481	0.16560511	-0.010737496000000001	0.23089196	0.123374015	0.12602395	-0.07426414	-0.035041735	-0.06909753	-0.18668701	-0.29977512	0.10954125	-0.17754647	0.21241306	-0.13170035	0.22092965	-0.18200135	0.048546545	0.023242744	0.008925368000000001	0.2167058	0.24135214	-0.08397608	0.07791868	0.05090377	0.08948415	0.048540945999999995	0.0022383153	-0.14274251	0.04476886	0.20046683	-0.1413873	-0.028311735	-0.1018602	-0.1904741	0.19858138	-0.24025166	1.0
TCGA-A2-A0YT-01A-11R-A109-07	-0.075341664	-0.06782539	-0.017236408	0.10670334	-0.018891325	-0.208565	0.18844575	-0.27937052	-0.10143764	-0.17953947	-0.18183921	0.08905879	0.045910593	0.14555357	0.22612664	0.20781013	0.14619872	0.11485404	-0.108789496	-0.16013536	-0.11924366	-0.030869892000000003	-0.1703771	-0.18404174	0.094056375	0.038838774	-0.019502653000000002	0.2100335	0.06937567	-0.22132568	0.19459821	0.07408562	0.113547176	0.014671101	0.17352755	-0.018095918	0.0030848382	0.2534779	0.25803414	-0.0055306190000000005	0.040867746	0.11397473	-0.029102573	-0.27032834	0.013297372	-0.0035632322999999996	0.033356792999999996	0.20225771	-0.05111409	-0.09769046	1.0
TCGA-A2-A1FV-01A-11R-A13Q-07	0.054876532	0.23878074	-0.041899577	0.10103883	0.1074105	0.069357194	-0.0476737	-0.21912363	-0.019092678999999998	0.037577406	-0.2318155	-0.15054055	-0.20571588	0.06405376	0.18557203	0.013803622	-0.0024335743	-0.05892420599999999	0.0025718147	0.030657591	-0.14653423	0.08280689	-0.2251045	-0.23407145	0.097787775	0.04530088	0.14939554	-0.18484816	0.20047058	-0.22000001	-0.0135445725	0.20681718	0.10961409	0.17395355	0.23230664	-0.2033786	-0.025205504	-0.122859254	0.21875340000000001	0.030682797999999997	-0.08501857	-0.08961153	-0.10525235	-0.25090972	0.10251076	0.07752034	0.0134942075	0.1962362	0.12126142	0.054304995	1.0
TCGA-A2-A1FW-01A-11R-A13Q-07	-0.25334308	0.110924475	-0.07246811	-0.043199793	0.14152092	-0.18265672	-0.07518745	-0.0710688	0.055062007	-0.062149048	-0.16617295	-0.14816374	-0.28300703	-0.21047479	0.27034473	-0.15440327	0.10247534	0.203822	0.2524087	0.014060115	-0.12814964	-0.023598656000000003	-0.3405559	-0.030108375	0.1555175	0.07445954	0.14644785	0.051745812999999995	-0.048838105	0.028584907000000003	0.005206153	-0.14045957	0.12569642	0.074855134	-0.017120695	-0.102497466	0.1287399	0.035520542	-0.10311494	0.0010526984	-0.07658038	0.014771006000000001	0.22820693	-0.20730029	-0.13328804	0.12949772	-0.113530345	0.061670265999999994	0.15862888	-0.09845919	1.0
TCGA-A2-A1FX-01A-11R-A13Q-07	-0.16902016	0.2490496	-0.23777092	-0.17530382	0.15172914	-0.054667268	0.14235805	0.012263366999999999	-0.062100023	-0.087729834	0.15260023	0.10853493	-0.14517595	-0.17397395	-0.110526145	0.21628726	-0.1712881	0.15657163	-0.02347857	-0.14161627	0.22821099	0.07835053	-0.14170164	-0.139724	0.18911152	-0.004796501	-0.10019278	-0.061523497	0.18000071	0.07298839	0.19228499	-0.051560882	0.13673662	-0.109782144	0.22757617	-0.13043004	0.050772347	-0.0045272135	0.069147006	-0.04402153	-0.02449472	0.21326365	0.053626254000000005	-0.19815037	-0.051846992	0.15835065	0.14318493	0.18788552	0.15326034	-0.123929985	1.0
TCGA-A2-A1FZ-01A-51R-A14D-07	0.12854798	0.15541217	0.06600956	0.037906904	0.20184043	0.1872967	0.15174165	-0.19319205	-0.22532663	0.15438144	-0.19223579999999998	0.09431193	-0.24937849	0.18607244	0.19766818	0.05471343	0.12345612	-0.1715565	-0.21592984	0.10819242	0.10883335	-0.021638755	-0.0061131480000000005	0.08875207	0.16549733	0.25839823	0.047131747	-0.13934788	0.02369912	0.14428452	-0.06766793	-0.053135905	-0.014441346	-0.12155067	0.21287517	0.19246586	-0.050460644000000006	0.09364844	-0.0049793595	0.05025381	-0.20103120000000002	0.18460102	-0.15912841	0.03540051	0.008992765	0.17614712	0.056709968	0.20139286	0.028666586	-0.047264047000000003	1.0
TCGA-A2-A1G0-01A-11R-A13Q-07	0.05098363	-0.029394912000000002	-0.18243298	0.17857124	0.087716185	0.037469353999999996	0.059404097	-0.19214004	0.11882858	0.17366415	-0.2603218	0.11708201	-0.01703309	-0.123626605	0.1703328	-0.007856456	0.005353206	-0.11291756	-0.058921322000000005	0.07030275	0.17739137	0.16863842	-0.05099732	-0.20101222	-0.024574392999999996	0.25726315	0.14092320000000003	0.1717918	0.24167517	-0.04071018	-0.18015724	0.031336162	0.15868676	0.13665429999999998	0.09845667	0.096263684	-0.15755738	0.13206387	0.21706523	-0.13063627	-0.029851994	-0.17497338	0.12873569	-0.15096027	-0.08436324	0.22814977	0.024915047000000003	0.24376647	0.048072677	0.12646241	1.0
TCGA-A2-A1G1-01A-21R-A13Q-07	-0.19535331	0.25784796	-0.12334154	0.16500159	-0.004126441	0.14801675	-0.14738256	-0.014295863	0.017441673	0.1910529	-0.14527085	0.03426505	0.105192766	-0.10254419	0.054737262	-0.10762658	-0.005245725	-0.030155242999999998	0.11638319	0.17893574	0.20675185	0.13503686	0.07867956	-0.14655952	-0.06732029	0.2592497	0.08078268	-0.20471057	-0.043365537999999995	-0.25300926	-0.080898724	0.12594439	-0.013729258000000001	0.06691774	0.07703547	-0.05627704	0.19121894	0.036075734	0.20106934	-0.08590155	-0.03113548	0.24815518	0.14086385	-0.29594785	-0.16640088	0.18729365	0.038155112000000005	0.004157544	0.12607963	0.14364126	1.0
TCGA-A2-A1G4-01A-11R-A13Q-07	-0.21242724	0.11187968	0.061740104000000004	0.07517044	0.10045321	-0.23305610000000002	-0.06966854	0.05447872	-0.17598857	0.08629197599999999	-0.23492518	-0.1263105	0.04263071	-0.18710539	-0.06728089599999999	0.1729362	0.10025997	-0.14877911	-0.10187285	0.15105444	0.22488378	-0.14686970000000002	-0.24244525	-0.23079261	-0.087392956	0.07015141	-0.026996517999999997	-0.099652454	0.2566676	0.15578150000000002	0.07369969999999999	-0.1344298	-0.041743907999999996	-0.057695977	-0.037501045	0.06395347400000001	0.06251282	0.054383427000000005	0.25549808	0.109772414	0.08045434	-0.14935918	-0.09262024	-0.060240857	-0.13945316	0.12308888	0.061874345	0.21079428	0.23798609999999998	-0.13475165	1.0
TCGA-A2-A1G6-01A-11R-A13Q-07	-0.28830177	0.22167039	0.115538515	-0.092042625	-0.042681433	-0.20890167	0.12127688	-0.049419895	0.027738906	-0.18749125	-0.20968659	-0.17820327	0.023388377999999998	0.046278235	0.054025758	-0.080626525	-0.16760635	0.18242718	0.122478575	0.09093480000000001	-0.044824525999999996	-0.0015113172	0.17491220000000002	0.00753165	0.05295002	0.059363400000000004	0.23556572	-0.028457813	0.17933972	-0.22973734	0.108037084	0.027641546	-0.15451705	-0.24308659	-0.13926914	0.2373404	0.15293999	-0.010995931	0.20207067	-0.0039036768	0.08639338	0.12869217	0.08168945	-0.21011839999999998	-0.05433971	0.11265699	0.19404604	-0.03112733	0.13346106	0.110747546	1.0
TCGA-A2-A25B-01A-11R-A169-07	-0.059539147	0.17990346	-0.26724198	0.16053647	-0.09440799	0.06473404	-0.17848916	-0.04522336	-0.21242782	0.22691539	0.043049347	-0.17019778	0.022815072999999998	-0.14661446	0.12671073	0.08698181	0.11306776	-0.006396093	-0.04618921	0.038293615	-0.09880373	0.002838787	0.045772873	-0.30899128	-0.15289634	0.21284735	0.24183524	0.16153723	0.10385837	-0.085164346	0.1117844	-0.09496828	-0.039301075	-0.14901927	0.17207628	-0.11000985	-0.06795382	0.11922098	0.18233578	0.086508065	-0.040154762999999996	0.24478349	-0.08613878	0.124309696	-0.17694052	-0.08573272	0.15170518	0.14138612	0.19753832	0.011167291999999999	1.0
TCGA-A2-A25C-01A-11R-A169-07	0.164535	0.17002103	0.13123259	-0.15573087	-0.104189835	-0.09200886	-0.035663754	0.12950881	-0.04866819	0.12756959	-0.19934855	-0.03451301	-0.33880815	0.078242496	-0.053553252999999995	0.19775739999999997	0.0961707	0.020151427	-0.120744005	-0.056645658	0.06873972	-0.09119737	-0.022950317999999997	0.014184548	0.21996628	0.27861398	0.08530477	-0.29073355	0.15618859999999998	-0.22210285	-0.08409278	-0.012415848	0.24247627	-0.015172682	0.2471986	0.14233397	0.15080923	0.10326978	-0.13949299	0.0017395401000000002	0.17341368	-0.038614973	-0.008816602	-0.044862393	0.115954846	0.1895292	0.063402645	0.03901174	0.086951695	-0.11557946	1.0
TCGA-A2-A25D-01A-12R-A16F-07	0.10862638	0.027350843	0.14727297	0.19448988	-0.17708445	0.05154059999999999	-0.1745951	-0.011372798	-0.15026806	0.19560865	-0.26670279999999996	-0.16074683	-0.18580125	-0.12032662	-0.12846825	-0.18464407	0.15612993	0.1395641	-0.007811946	0.12460586	0.19943811	-0.072893545	0.017770082	-0.13140883	0.21914193	-0.17656764	0.20062579	-0.15090744	-0.044564743	-0.15893154	0.003942264	0.11373374	0.11869924	-0.21347399999999997	-0.12847066	0.17871934	0.14533918	0.053817755999999994	-0.08399831	0.026772723	0.06996447	0.25098488	0.018297631	-0.17259629	-0.039515253	-0.12236445	-0.10208476	0.042742222999999996	0.17189929	0.07155038400000001	1.0
TCGA-A2-A25E-01A-11R-A169-07	0.07328022	-0.15354092	-0.2718844	-0.2796795	-0.1901695	-0.16399448	0.05642271	0.08624648	-0.069929965	-0.21375221	-0.20800884	0.028506866000000002	0.03942545	0.00929498	0.03495454	0.10238315	0.14699477	0.07912899999999999	0.21647017	0.22555679	-0.02297066	0.15915966	-0.14485009	-0.28905149999999996	-0.017600285	0.12523428	0.20502612	0.037940092	0.14681543	0.044017232999999996	0.034509115	0.10435614	0.0045080506	-0.20392866	0.04576531	-0.18618019	-0.042550605	0.09988383	-0.18120897	0.13363229	0.09337647	0.1605549	0.066707	-0.087307744	0.02711027	0.18289101	-0.02121318	0.06953503	0.17508258	-0.16926546	1.0
TCGA-A2-A25F-01A-11R-A169-07	0.046568874	0.15627278	0.068715364	0.17150466	0.18456753	0.12814412	-0.02168797	-0.18487091	-0.08373146	0.14224964	0.058310457	0.047342695	-0.16823031	-0.109489396	0.11809008	0.05989908	0.25236845	0.16781904	0.20230739	0.16290969	0.1250316	-0.06005932	-0.20996636	-0.1101776	0.1252401	0.012127821	-0.05519773	0.02447612	0.07850456	0.055973772000000005	0.019888403	-0.008637345	0.13235374	-0.076762125	0.23410770000000003	0.15414007	0.27395165	-0.06547479	0.27108237	-0.095890395	-0.034350116	0.23838621	-0.04728661	-0.15068202	0.08265401	0.08068377	-0.19833610000000002	0.09909104	0.29646787	0.04547716	1.0
TCGA-A2-A3KC-01A-11R-A213-07	-0.10177573	0.021029762999999996	-0.18216574	-0.22837012	0.15286821	-0.11562146	0.017893358999999998	0.07311922	-0.108537465	-0.20196426	-0.17913779999999999	0.10615031	-0.22363228	0.21313539999999997	0.17056605	-0.09641266	0.1710072	0.13393219	0.10442669	0.16468571	0.05917616	-0.13907218	0.086452164	-0.1815322	-0.16570562	-0.08807239	0.096440844	-0.09462375	-0.11649679	-0.09918901	0.22131772	0.027254958	0.0002579974	-0.27647573	0.10487101	0.12983236	-0.13796666	0.2286239	0.17983462	0.21557288	0.035908744	-0.0041494914	-0.108601145	-0.17815998	-0.065613315	-0.0052393516999999995	-0.17718527	0.034055993	0.06454617	0.12774065	1.0
TCGA-A2-A3XS-01A-11R-A22U-07	0.11684620400000001	0.18937588	0.05925965	-0.004421565	0.13230363	-0.12460603	0.034635507	-0.16800894	-0.16973408	0.18152972	-0.24431329999999998	0.13938679	-0.22951947	0.07337112	0.108305395	0.21760635	-0.12166045	0.12960553	0.038609512	0.117217936	-0.12506934	0.19346817	-0.22037216	0.06629745	0.111484334	0.2858015	0.1525993	0.110312596	0.27046776	-0.08477704	-0.21876849	-0.049607902999999995	-0.084029794	0.06421093	-0.09636595	0.10949803	-0.10460483	-0.027363935	0.121109605	0.19576053	0.1275755	0.0934467	0.17595048	-0.0025921168	0.11798721	-0.06627508	0.04627565	0.07263687	0.18499199	-0.017728327	1.0
TCGA-A2-A3XT-01A-11R-A22U-07	-0.23623385	0.0007728864999999999	-0.28255242	-0.18837567	0.22130753	-0.23752025	0.106528975	-0.018208856000000002	0.024969527000000002	-0.016299604	0.06331492	0.05493421	0.005291853000000001	-0.0135758305	-0.011712333	0.09901621	-0.08670119	0.0026304729	-0.05206315	0.10286071	0.06680283	0.13406010000000002	-0.29756716	-0.22684853	0.18587136	0.17123583	0.105877236	-0.0018674753	0.08095475	-0.27857304	0.16935986	-0.067721136	0.11093465	-0.19185024	0.24612784	0.17280874	0.008477232	0.1418387	0.012225701	0.19037125	0.104209445	0.20134507	0.023222135	-0.12468252	0.08266373	0.13990268	-0.06309596	-0.08898900400000001	0.0712707	-0.10468368	1.0
TCGA-A2-A3XU-01A-12R-A22U-07	-0.23085770000000003	0.16707422	-0.12440131	-0.21383573	-0.08837111	-0.0018015945	-0.009832922	0.0005213013500000001	-0.07491394	0.19925445	-0.20096494	-0.06229034	-0.08445661	-0.16423647	0.08732284	0.17409275	0.18009512	-0.119633175	-0.08899557	0.01425247	0.013733963	0.08924082	-0.27809542	-0.12780029	-0.04635755	0.19758357	0.17629227	-0.22758561	0.027417455	-0.13838017	0.089967996	0.10137185	-0.14233923	0.09822824	-0.011818044	-0.1138364	0.06287829	0.16519820000000002	0.049139634	0.031905852	0.15133002	0.26408285	0.15634373	-0.20699683	-0.19380273	0.045441702	-0.12402176	0.23810261	-0.1329635	0.045147646	1.0
TCGA-A2-A3XV-01A-21R-A239-07	-0.19933492	0.22420114	-0.05492103	-0.18673043	-0.010712252	-0.18788509	-0.18702056	-0.040419996	-0.026923982000000003	0.30813667	-0.04193682	-0.15954337	-0.26944035	-0.14308785	0.039061148	-0.00503692	0.06434529	0.09953073400000001	-0.110742375	0.08462786	-0.045403868	0.12968668	-0.24944067	-0.08535336	0.17594939999999998	-0.08773994	0.15753095	-0.20778732	0.180126	0.0054288795	-0.04125959	0.22018437	-0.033433147	-0.20221813	0.18859825	0.092659764	0.09659672	0.14789099	0.01922574	0.10210816	0.007840442	0.12870668	-0.08252955	-0.2543302	0.05003101	-0.08436572	0.10568981	0.06823283	0.09382536	0.14449717	1.0
TCGA-A2-A3XX-01A-21R-A239-07	0.13745320000000003	0.11115314	-0.2315931	0.08150765	-0.07778033	-0.19674703	0.019520443000000002	0.021254545	-0.20479104	0.12144928	-0.20454802	0.19840212	0.121842034	-0.18951010000000001	0.0049616196	0.0749733	-0.108932175	0.13108727	-0.054981972999999996	0.12675196	0.04242601	-0.12833112	0.070457324	-0.11978336	0.07706547	0.22502005	-0.081077494	-0.07623757	0.2847632	0.096473604	-0.11015579	0.09372778	-0.12449814	-0.013576268999999998	0.09955219	-0.018845562	0.18437293	0.038558527999999995	0.26560733	0.07792753	0.0037762078000000004	0.23182939	0.15828872	-0.16327433	0.049043234000000005	0.18733943	-0.20207949	0.24577121	-0.13888244	0.03217571	1.0
TCGA-A2-A3XY-01A-11R-A239-07	-0.1892865	0.08661568	-0.06645166	0.072154224	-0.021491455	0.09821208	-0.09626900000000001	-0.21466252	-0.0048782644	-0.10241274	-0.17994244	0.12296882	-0.098343134	-0.18339293	-0.081710935	-0.0520431	0.062129214	-0.06376505	0.08543256	-0.15902501	0.22846662	0.16818407	-0.23945983	0.02168408	-0.09310718	0.1140109	-0.07492777	-0.19192395	0.24786814	0.018275551	0.07103824	0.17370066	0.007348529	-0.13452120000000004	0.06793729	0.13252932	0.29663384	0.055439315999999995	0.08944431	-0.03742548	-0.115657814	0.21819633	-0.14407521	-0.18510017	-0.20795192	0.1771771	0.13801013	0.21752913	0.11528545	-0.14099589	1.0
TCGA-A2-A3XZ-01A-42R-A239-07	-0.15793821	0.16530365	-0.07393087	0.08442542	-0.115141965	-0.22209275	0.24411543	0.066041246	-0.050876185	-0.008967257	-0.085691676	0.063666254	-0.22981666	0.15670757	0.09343698	0.21500164	-0.068516634	0.03841852	-0.13725021	0.12582196	0.20663261	0.21273468	0.1678106	-0.12473068	0.16702576	0.18881363	0.18133403	-0.22928385	0.21132001	-0.0242447	0.048823502000000005	0.0455088	0.03203133	-0.06862727	0.18415661	-0.16388376	0.26520494	0.1309244	-0.01219332	0.024263965	-0.052834405999999993	-0.011549027	0.074215025	-0.077223234	0.19160578	-0.05920284	-0.08300832	0.20839235	-0.11289587	0.1363768	1.0
TCGA-A2-A3Y0-01A-11R-A239-07	-0.085827686	0.26145643	-0.12015273	0.008466455	-0.06699664	-0.17333125	0.091825135	-0.008239558000000001	-0.17675148	0.15711708	0.036655616	0.07663358	-0.0126140015	0.12579893	0.13486965	0.25543314	0.17117333	0.25986102	-0.035288736	0.23150279	-0.07405189400000001	0.029379677000000003	-0.27343908	-0.20673487	-0.13696945	0.07511319	0.025122395	0.034212213	0.289011	-0.24777465	0.05751643	0.033561673	0.093771316	-0.06851339	0.10217415	0.24439971	0.24526931	-0.03107748	0.008930868	0.026270425	-0.13555706	0.109091975	0.084872484	-0.11701353	-0.011737202	0.17212433	0.028298742999999998	0.15836397	0.011031128000000001	0.024507087	1.0
TCGA-A2-A4RW-01A-21R-A266-07	0.08094184	0.22214864	-0.20497304	-0.20703231	0.19286937	-0.20586151	0.09258427	-0.11580093	-0.1723949	0.23115794	0.05179754599999999	0.08619711	-0.08730673	-0.13519858	-0.16144523	-0.14319177	-0.12423809	0.09444366	0.06120214	-0.034946296	0.18047693	0.1516766	-0.31192118	0.019115353	0.06371822	0.051995672	-0.116360985	0.09829654	0.2073245	-0.10298799	0.045752015	0.19810463	0.04093451	0.033486795	0.19884970000000002	0.09070945	-0.117097475	0.16783163	0.20652643	-0.122168355	0.21855362	0.11594566	-0.039269608	-0.10420314	0.020147298	-0.011945098999999999	0.16723664	0.038043346	0.13171291	-0.116304405	1.0
TCGA-A2-A4RY-01A-31R-A266-07	-0.15817297	0.071504295	-0.060738515	0.13752055	-0.06430902	-0.10931406	0.25909114	-0.035988156	-0.24719745	-0.07918237	-0.147331	-0.059954744000000004	-0.2433669	-0.03845821	0.25267857	0.23245189	-0.0112820845	0.06790217	0.057473112	0.04099557	0.051163528	0.09725709	-0.23465723	0.13027081	0.014805132	0.027377436	0.2780911	0.045570365999999994	0.058728073	0.060285192	0.04607644	0.20855607	-0.12132116	-0.046481546	-0.10293241	-0.21877542	0.18401329	0.083451144	0.18260211	-0.18459667	0.18480120000000003	-0.0035796512	-0.108192444	-0.12395897	-0.14913918	0.07248328	-0.21605742	0.023559457000000002	0.04260358	0.20788236	1.0
TCGA-A2-A4S0-01A-21R-A266-07	-0.26159143	0.26034070000000004	0.117600515	-0.07612789	0.042628538	-0.046271592	-0.18930802	0.084941655	-0.029196592	-0.14079534	-0.24826398	-0.011210757	-0.22696868	-0.10819445	-0.060559115999999996	0.01928914	0.15284982	0.10470192	0.02411157	0.08028055	-0.15203758	-0.12426877	-0.24004902	-0.029418375	-0.080356956	0.18393807	0.042881694000000005	-0.22445267	0.20201136	0.08756718	0.021052203999999998	0.009068485	-0.18460838	0.059307877	0.12957099	0.16498412	0.27097020000000005	0.20331137	-0.0018943395	0.25390148	-0.06805399	0.20934418	-0.05027787400000001	-0.06495001	-0.17156179	0.043679137	0.039145987	-0.026020866	0.08271718	0.105445124	1.0
TCGA-A2-A4S1-01A-21R-A266-07	0.08842915	0.14106175	-0.22456574	0.097795084	0.09991211	-0.15983571	-0.033127483	-0.14653112	0.08536547	0.059523575	-0.050798262999999996	0.14862187	0.02923196	-0.10961593	0.29954390000000003	0.11356216	0.19485234	0.1862571	-0.054945387000000005	0.05846471	0.14245659	0.058003545	-0.34716076	-0.21297595	0.22051044	0.112950824	0.19921164	-0.048166398	0.2538911	0.13839014	0.011003299999999999	0.20996779	0.08380125	-0.02771928	0.134725	-0.10812138	-0.10292183	0.15086628	0.21481020000000003	0.17725882	0.043486885999999995	-0.065273315	-0.04271247	0.08663581	-0.12038963	0.06629412	0.005545848000000001	0.012112048	0.14103042	0.01918533	1.0
TCGA-A2-A4S2-01A-12R-A266-07	-0.016814593	0.24663854	-0.009183831	0.0071684653	0.010948042	-0.09219887	-0.21068005	0.19379471	-0.2019741	0.3135136	-0.017675998000000002	-0.15251233	0.064938106	0.17070778	0.16931576	-0.03702486	0.1197624	-0.12500678	-0.028144974	-0.03350088	-0.14181215	0.102936976	-0.09625073	-0.19516733	-0.061186824	0.2553863	0.16175492	-0.23118235	-0.019378467	-0.19866678	0.027739445	-0.19277997	0.12855497	-0.012952884	-0.15720189	0.15393753	0.2019035	-0.06882911	0.21334740000000002	0.12072498	-0.09650587	0.03727039	0.14565752	0.04761311	-0.1744201	0.08467797	0.09165868	0.039368715	-0.13169706	0.12674555	1.0
TCGA-A2-A4S3-01A-21R-A266-07	-0.23191397	0.20579544	-0.19649696	0.0664428	0.12991364	-0.03794558	-0.0062888796	-0.15044939999999998	-0.08058092	-0.18349546	-0.13491946	-0.11618797	-0.04718771	-0.08251759	0.00470511	0.11476891	-0.17410572	0.024842931000000002	0.20881663	-0.19144109	0.1578904	0.11664798	-0.13832356	-0.04455426	-0.19930455	0.2686929	0.19797526	-0.11428073	0.15951833	0.06141177	-0.09710327	0.23294654	0.033353504	0.13410528	0.023504585	0.048225854000000005	-0.13125737	0.04411504	0.04558915	0.23559466	0.12821549	-0.14540450000000002	0.08509331	-0.2759344	0.083388105	-0.06739859	-0.07127118	0.23625135	0.055266805	-0.05184845	1.0
TCGA-A7-A0CD-01A-11R-A00Z-07	-0.16035512	-0.02193587	-0.13540421	-0.17088568	-0.19113863	-0.13342126	-0.061762832000000004	-0.26189214	-0.018251086	0.17409137	-0.11636234	-0.13889010000000002	-0.12062101	0.048106465	0.15297234	0.23505177	0.06283442	0.15797137	-0.04441896	-0.19942705	0.30969974	0.21589193	-0.29021734	-0.10931039	0.0839413	0.023192815	0.061069142	-0.17961389	0.08408161	0.10496228	-0.12545669	0.013221129	-0.11584699	-0.22163002	0.030928627	0.10512991	0.22073655	-0.09454022	-0.10197007	0.20720735	-0.053565785	0.106509455	-0.110417075	0.049686793	0.07392651	-0.06001555	-0.113130905	-0.017792443	0.12518257	-0.036791526	1.0
TCGA-A7-A0CE-01A-11R-A00Z-07	-0.09062838599999999	0.020065686	-0.15167663	0.06926795	0.15942015	0.03357869	-0.17415550000000002	-0.23441327	-0.18678308	-0.063664466	-0.09905029	-0.013740826000000001	-0.115292706	-0.09854046	0.112380594	0.018790565	0.13687088	0.009547311	0.013965509	0.053351443	0.028496211	0.03758619999999999	-0.3357815	-0.063868955	-0.10194225	-0.13003926	0.27899975	-0.05837957	-0.15861924	0.050461467	0.09994508	-0.06383262599999999	0.17120239	-0.25154486	0.008725331999999999	0.09605519	-0.13145347	0.1000827	0.27831009999999995	0.0797777	-0.034753285	0.2862565	-0.17020918	0.13799375	0.09229831	0.16307165	0.118533894	0.18896529	0.20760947	-0.058742363	1.0
TCGA-A7-A0CE-11A-21R-A089-07	-0.11757024	0.29844087	0.0010483232000000002	0.21341904	0.079533726	-0.04297449	-0.009227345999999999	0.1905377	-0.07711793	0.18838567	-0.09370433	-0.07318566	-0.19321345	-0.15323918	-0.08617165	0.020591823000000002	-0.04633059	0.046490736	0.17248337	0.17718565	0.13104844	0.16964374	-0.14265727	-0.11265944	-0.06015483	0.15674657	0.19704731	0.031501822	0.17826994	0.16537528	-0.15745533	0.04221626	0.09631443	0.15847504	-0.12769756	0.09689429	0.008436944	0.040838413	0.30083257	-0.07744985	0.0040859883	0.21764039	0.19412027	0.07031312599999999	0.16156244	-0.19867802	-0.18249184	-0.18055774	0.068792775	0.007475341999999999	0.0
TCGA-A7-A0CG-01A-12R-A056-07	-0.20378035	-0.022093516	0.057712667	-0.06339443	0.2597801	-0.05187657	0.03431194	-0.19664322	-0.21434629	-0.1704816	-0.107896015	0.027061326	-0.13482642	0.024154881	-0.14304295	0.115047574	0.10915001	0.019144932	-0.15064986	-0.13473079	0.21107404	-0.044685684	0.11198358	0.07748046	0.041755058	0.25260365	0.18155426	0.10684980000000001	0.19129273	-0.10279237	-0.16351898	0.15200542	0.13541125	-0.17925674	0.21897908	-0.03554928	0.08776376	-0.09420268	0.025062421	0.20587684	0.12635744	0.22737376	-0.15171023	-0.10376999	0.16575326	0.04452879	0.07037886	0.23036803	-0.14545628	-0.079096004	1.0
TCGA-A7-A0CH-01A-21R-A00Z-07	-0.17123157	0.10453416	0.15056771	0.18925618	0.052643098	-0.27267042	-0.059614662	0.21031584	-0.21877134	0.06533327	-0.06459279	-0.038810417	-0.22642784	0.14412248	-0.0655046	0.124590285	-0.012413592	0.15562578	0.0009212271000000001	-0.027389103999999997	0.10277827	-0.120281875	-0.13581851	-0.123462886	-0.08030812400000001	0.013050008	0.06693354	0.032208927000000005	0.15414634	-0.23343189	0.24503422	0.03549397	-0.16486533	0.16048026	0.054729782000000005	-0.037854895	-0.08614204	0.2415212	-0.22515194	0.17254046	0.08588572	-0.07521510000000001	0.09125977	-0.24289398	-0.008431471	0.16095787	-0.15931046	0.11301581599999999	-0.15792564	-0.1347159	1.0
TCGA-A7-A0CH-11A-32R-A089-07	-0.035918646	0.29977727	-0.1384967	-0.10763147	-0.19647902	0.13699439	0.091162786	-0.027296717999999998	-0.0016377857000000001	0.03567111	-0.11092487	0.16768965	-0.16877258	-0.033405226	-0.15905842	0.08468898	0.24954189999999998	-0.021921672000000003	0.16077386	0.14081576	0.10483250000000001	-0.1259059	-0.11328104	-0.05769432	0.18359357	-0.07835991	0.22065136	0.17646195	0.15767464	-0.12948674	-0.055746272	-0.144268	0.14346212	-0.10575153	0.19122326	0.07058599	0.08098003	-0.15571020000000002	-0.005852149300000001	0.05637019	-0.014478116999999999	0.14962451	0.09329744400000001	-0.1637059	-0.06267222	-0.15706167	0.13728419	0.29890382	0.25220993	-0.07347539	0.0
TCGA-A7-A0CJ-01A-21R-A00Z-07	-0.27530548	-0.110575736	0.14207456	-0.12741111	0.1937759	-0.0849786	0.20073886	-0.17854606	-0.11941014	-0.17427334	-0.07568903	-0.05510891	-0.21092533	0.11711622	0.19197844	0.043308157	0.0318813	0.194097	0.15325786	0.062780745	-0.14965904	0.08390453	0.025701473	-0.10812867	0.22725283	0.16737631	0.23095281	-0.0046070544	-0.075210094	-0.114517316	-0.055971585	-0.05632846	0.012081513	-0.19585265	-0.043182395	0.1273904	-0.05349047	0.2015053	0.0094979005	0.008162459	0.00067577563	0.2601364	0.16480479999999997	-0.2027431	-0.17271903	-0.021523315	-0.12054842	-0.10172228	0.22560856	-0.00690145	1.0
TCGA-A7-A0D9-01A-31R-A056-07	-0.11687555	0.08278475	-0.01265296	-0.12274008	-0.06752409	-0.04340784	0.044737900000000004	-0.040240437000000004	-0.11137687	0.16191566	-0.038211692	-0.15127674	0.12856944	-0.07099407	-0.13399465	0.22515796	0.114130475	0.20333053	0.05237761	0.005839286999999999	0.17437424	0.16762549	-0.38951463	0.00971937	0.15924494	-0.05756864	0.17697072	0.026973472999999998	0.18335572	-0.19103408	-0.22538336	-0.051512152	-0.10055291	-0.07391278	0.19912428	0.14586562	-0.013630027	-0.15640599	-0.10501853400000001	-0.08772038	0.043243933	-0.06107233	0.1309052	-0.30122405	-0.08455524	0.24320468	0.12213765	0.15514448	0.09467682	-0.04078942	1.0
TCGA-A7-A0D9-11A-53R-A089-07	-0.22183749	0.10263678400000001	-0.21612622	0.09542644	0.014148743	-0.025153417	0.036269084	-0.18792957	0.054357007	0.13765176	-0.18973126	0.11643816	-0.23464197	0.026555002	0.0359989	0.18318966	0.059091248	-0.07462484	0.07336977	-0.06666699	-0.17221132	0.076896794	-0.010233091	-0.21182019	-0.09474984	0.2634448	0.26178548	0.103157245	0.19329105	-0.16921584	-0.012178783	0.17797631	-0.059204623	-0.26705918	0.097958274	-0.14075318	0.11490729	-0.022977877	0.15566292	0.21946612	-0.020074744	0.22299102	0.04988805	-0.120819606	-0.18527639999999998	-0.01766447	-0.052205565999999995	0.09597262	-0.032636616	0.15772328	0.0
TCGA-A7-A0DB-01A-11R-A00Z-07	-0.14757897	0.273066	-0.21551935	0.13351879	0.11727094	-0.10261963	-0.07478002	0.08927771	-0.16357608	0.11181632400000001	0.1535374	-0.005994293	-0.19724593	0.16647021	0.1652504	-0.19786358	-0.15344435	-0.10239542	-0.18403733	0.080651745	0.04683056	-0.15206763	-0.032870915	-0.15543951	0.19089343	-0.2116189	-0.09946757	-0.22170213	0.18751991	-0.060718015	-0.03794699	0.1564578	-0.03478903	0.14686677	-0.072259955	-0.15749797	0.011033281	0.17339064	0.08845274	-0.12718233	0.12622926	0.09880924	-0.07292345	-0.12176837	-0.17260022	0.20629266	-0.06362422	0.03341798	0.057422154	-0.2047962	1.0
TCGA-A7-A0DB-01A-11R-A277-07	0.12877423	-0.028708855	-0.21858042	-0.08781320599999999	-0.009349538000000001	-0.08425052	-0.043826103	-0.11450187	0.06331766	0.19240955	0.032448024	0.07500151	0.0017189471	0.042771745	0.067261554	0.24392837	0.17224857	0.016276918	0.11135936	0.012991941000000002	-0.18555239	0.13299347	-0.31753248	-0.032306332	0.01706833	0.3175615	0.23560079999999997	-0.2213411	0.15412614	-0.20021424	0.1117422	0.1620904	-0.08531090599999999	-0.2116212	-0.027580688	0.043153252	0.30765003	0.07230946	0.13422069	0.02877223	-0.04205061	0.14265999	0.06684818	-0.16011313	0.02058655	0.20251329	-0.06422579	-0.099002406	-0.059552234	0.04533397	1.0
TCGA-A7-A0DB-01C-02R-A277-07	-0.22406282	0.20820831	-0.035531085	-0.15892813	0.075856306	-0.16098244	-0.17329292	-0.16781682	-0.12021300000000001	0.27626723	-0.15073565	-0.090601295	-0.22386998	-0.088980824	0.18325697	0.050404355	-0.061944625999999996	-0.07157341	0.12970851	0.10389507	-0.08032088	0.033652935	-0.10404663	-0.17234604	0.21111743	0.07041889999999999	0.20902258	-0.25912535	0.27355906	-0.033847592999999995	-0.036254197	-0.029260342999999998	-0.033915653999999996	-0.21110279999999998	0.17095372	0.09174491	0.16893339	0.16075794	0.17220707	-0.08126155	0.024208125	-0.043181054	0.10923498	-0.119791985	-0.12636182	-0.018043077	0.09912805	-0.03358571	0.14346921	0.02073356	1.0
TCGA-A7-A0DB-11A-33R-A089-07	-0.08305287	0.08394985	-0.17246181	0.067584716	-0.15824929999999998	0.08833571	-0.13948806	0.09123561	-0.22198544	0.122111544	-0.15836193	-0.13262774	-0.07581824	-0.14532033	0.22023572	-0.017122483	0.23094419	0.17628607	-0.06733455	-0.07866604599999999	-0.062492695	0.07128714	0.09423177	-0.29655966	0.10307460000000002	0.09488792	0.1729736	-0.011009365	-0.03780405	-0.15953445	-0.08519803	0.09019183	-0.11379248	0.09056991	0.16439019	-0.011608631999999999	0.32229152	0.048757724	0.14720988	-0.09991737	0.09948798	0.18126324	-0.16399029	-0.05286079	-0.07827611	0.24621508	-0.15829366	-0.12242657	0.20054498	0.100184835	0.0
TCGA-A7-A0DC-01A-11R-A00Z-07	0.10326572	0.20886241	0.009964506	0.019108206000000003	0.14679514	-0.09989982	0.0094886515	-0.112258956	-0.13988753	0.28618878	-0.25586203	-0.0616273	-0.001576975	0.08428588	0.21605785	0.25733963	0.21470891	-0.07606953400000001	-0.07138327	0.07716544	0.067874454	0.13457674	-0.19836268	-0.15743847	0.1587211	0.28225392	0.06041643	-0.04722573	0.20888470000000003	-0.065316446	0.13512549	-0.04027879	-0.18841773	0.035382558	0.038345836	-0.09593657	0.20406882	-0.075966805	0.15445004	0.15516365	0.023276908	0.21767277	0.13824879999999998	0.09413695	0.10930044	0.11439389999999998	-0.007984946	0.09757212	0.07639916	-0.15115102	1.0
TCGA-A7-A0DC-01B-04R-A22O-07	-0.19332193	0.22269012	-0.18258917	0.08674779	0.070251845	-0.098113276	0.08131367	-0.21952064	-0.007908436	0.12061366	-0.26235938	0.04165682	-0.13094553	-0.10288553	0.08743619	0.10217482	-0.06864381	0.14076068	-0.061472997	0.16794519	-0.16345410000000002	0.12975478	-0.11344692	-0.027599499	-0.060437113	0.037518464	0.10871239	-0.27070120000000003	-0.042037647000000004	-0.18013613	-0.15812793	-0.07370584	0.06669667	-0.20835401	0.2795468	-0.024671411	0.27753255	0.036060944	0.29679608	0.09659367	0.07878264	0.24692840000000002	0.01859608	-0.046866897000000005	0.03778945	0.14384070000000002	0.009631739	0.0045438814	0.09198723	-0.023105072	1.0
TCGA-A7-A0DC-11A-41R-A089-07	-0.035070334	0.07172739999999998	0.18949449	-0.11107083400000001	0.12454201	-0.006120861	-0.034790028	0.065303475	-0.17253503	0.045059632999999995	-0.3034261	-0.05401873	-0.014728901	0.15037102	-0.09638953	0.005401755	0.23444478	-0.039189044	-0.0407673	0.15354219	0.23046497	0.049913213	-0.29582778	-0.016389977	0.09909713	0.21561056	-0.11623046	-0.19199727	0.21108878	0.05236294	0.036530375	0.08343332	-0.07635999	-0.08240216	0.13890718	0.15710179999999999	-0.17354545	-0.08548057	0.15251017	0.13574655	-0.14889187	0.15300813	0.19584697	0.13892607	-0.05483951	0.2220156	0.16936153	-0.05945711	0.13840058	-0.18816435	0.0
TCGA-A7-A13D-01A-13R-A12P-07	-0.1890306	-0.11561666	0.012332672	-0.21344991	0.044321842	-0.12387475	0.11340461	-0.13605136	-0.07768291	0.24672739999999999	-0.2761239	-0.023728533	-0.036574088	-0.12657262	-0.07678254	0.22130291	0.026819258999999998	-0.015385956999999999	-0.02802437	-0.13946472	-0.16472878	-0.08797101	0.065953106	-0.22164628	0.04168367	0.04833223	0.118919946	0.049704704	0.2754722	-0.20371608	0.1388491	0.044734582	-0.024543045	-0.03943216	0.18437931	0.14894521	-0.07951985	0.0033583727000000003	0.06397162	0.13382559	0.25161332	0.15298302	0.14854349	-0.3052744	-0.16347805	-0.054503385	-0.13105379	-0.03959106	0.1853086	0.015660979	1.0
TCGA-A7-A13D-01A-13R-A277-07	-0.07294227	-0.01605298	0.043956302	-0.02011453	-0.077518165	-0.0022321853	-0.09569483	-0.00707925	-0.1808509	0.25662026	-0.26838216	-0.09856147	0.122506015	0.046446536	0.15123697	0.18051158	0.13831486	0.1991105	-0.07924251	0.08291174	-0.09302678	0.15687679	-0.31311712	-0.32101282	0.13644579999999998	0.028030298999999998	0.16189593	-0.10045547	0.31281509999999996	0.01802177	0.06421346	-0.011107465	-0.014819114	-0.0029461351	0.18093204	-0.14852062	0.19716702	0.16410969	-0.057791315	-0.007586834000000001	0.16056286	-0.046683073	-0.010830621	-0.13569270000000003	-0.05970413	0.095144406	0.0045529744	-0.10172494	0.23187214	0.10979294	1.0
TCGA-A7-A13D-01B-04R-A277-07	-0.029450813	-0.050416525	-0.21115889999999998	-0.17138149	-0.07339741	0.11108103	0.009340684	0.027041996000000002	-0.26252902	0.09702211	-0.24777158	0.057353432999999995	-0.20744905	0.052638147	0.21024804	0.05891542	0.08229797	0.024308242	0.1915974	0.06679669	0.014706226000000001	0.13181695	-0.37875777	-0.27782142	0.088368595	0.24806827	0.1704358	-0.06238431	0.19325651	-0.14276270000000002	0.05873869999999999	0.083733976	0.09005576	-0.21874821	0.25363258	0.07701303	0.09880493	-0.01683025	-0.04523591	0.041312423	-0.03307008	0.14566681	0.030239766	-0.14418624	-0.07985367	-0.058933828	0.03884104	0.121584654	0.012380056	-0.0034669642	1.0
TCGA-A7-A13E-01A-11R-A12P-07	-0.12554197	-0.06723847	-0.0066886540000000005	-0.08153675	0.06904811	0.19347684	-0.006210200999999999	-0.22291182	-0.07537215	0.11784066	-0.23542298	0.10708381	-0.14575535	-0.009532798	0.15780091	0.116902605	0.23762152	0.27566427	0.008751337	0.07961377	0.18030739999999998	0.15634893	-0.11667497	0.043257657000000005	0.12889448	0.06621422	-0.14870383	-0.06959176	0.12245862	0.034592662	0.041196875	0.19949041	0.0011327598	-0.25034434	0.20399661	0.21124527	0.24257548	0.05808791	0.26097858	0.13516384	0.14559413	0.02695434	-0.04371757	0.11645622	-0.09854518	0.21548192	0.053844206	0.012082035	-0.049052465999999996	-0.14588900000000002	1.0
TCGA-A7-A13E-01A-11R-A277-07	-0.18501282	0.13083167	0.03463561	0.021458084	0.19847496	-0.15255497	-0.18238604	-0.012469653999999998	-0.15211168	0.15717363	-0.102808334	-0.19420432	-0.12090769999999999	0.08113313	0.14921923	0.09642838	0.08501559	-0.016226215	-0.09244112	-0.11702646	0.04177113	0.21729381	0.13550453	-0.28190879999999996	-0.01679956	0.18787333	0.02035275	-0.3880288	0.1043141	-0.07669191	-0.10633093	0.22115766	0.029242795	0.13647658	0.026616575	0.0038414684000000004	-0.018421003999999998	0.033253975	0.13333032	0.040302664	0.07195734	0.18941003	0.036994886	-0.17900999	0.081820115	0.24306047	-0.09909169	0.24473205	0.10015917	-0.03022609	1.0
TCGA-A7-A13E-01B-06R-A277-07	-0.15680166	-0.023011839	0.04034171	0.08764982	-0.0680398	0.1445847	0.03712156	-0.13293654	-0.21135284	0.27569786	-0.24899843	-0.08906364	-0.027086198	0.010867357	0.17442879999999997	0.08008530000000001	0.13913591	0.10335683	0.09930073	0.12924126	0.0045805825	0.024385264	-0.38775346	-0.21954793	0.15535355	0.01570335	0.25126562	0.0073896293000000005	0.31190705	-0.12620299	0.13498329	-0.10415099	-0.063105576	0.048864614	0.13163076	0.11633483	0.16191481	-0.020889482	0.11194635	0.095227145	0.13719379999999998	0.17424078	0.14481907	-0.073680535	-0.1283175	0.0934604	-0.00363231	-0.08130892	0.11144658	0.041816026	1.0
TCGA-A7-A13E-11A-61R-A12P-07	-0.2932267	-0.091535404	0.031475116000000004	0.06958207	0.13228641	0.008960546	0.10606247	0.023988957	-0.12375913	0.111479655	-0.054578642999999996	0.116995454	0.13915664	-0.026176572000000002	0.08910546	-0.1071308	-0.043765495999999994	0.23529434	0.097131185	0.006112851999999999	0.29526106	0.12201765	-0.21028417	-0.31170258	0.07744532	0.06597328	0.14034273	-0.1462236	0.12536989999999998	-0.042696677	0.022799807000000002	-0.015115528	0.08737577	-0.08801005	-0.060321186	0.22225074	0.33107924	0.17788592	-0.056963377	0.11493262	0.0010869871	0.12513149	0.16485071	-0.28084502	-0.18036304	0.002383891	0.03272185	-0.07649405	0.13860972	0.01033091	0.0
TCGA-A7-A13F-11A-42R-A12P-07	-0.2565257	-0.14355816	-0.070716746	0.15724103	0.15289918	-0.18524644	-0.21523301	0.01670624	0.10159661	0.12214968	-0.22064526	-0.09602045	-0.30298713	0.08308056	0.2521826	0.19932699	0.19406801	-0.01714912	-0.044536564	0.15065219	-0.1518361	-0.13325997	-0.19865574	0.05953188	0.029835016000000002	0.12195213	0.08498572	-0.17856069	0.15613995	-0.094694786	0.1290481	-0.08801866	-0.0975345	-0.26241627	0.11012441	-0.15050878	-0.08022482	-0.057711557000000004	0.13882664	0.03054937	0.011977163	0.11727451	-0.046852157	0.117497884	-0.018397568	0.18342076	-0.07358175	0.069434404	0.13328098	0.01743256	0.0
TCGA-A7-A13G-01B-04R-A22O-07	0.00827277	0.16271108	-0.10615609	0.025313834	0.12691231	0.1660948	-0.0778053	-0.01938393	-0.03903638	0.1361715	-0.14447872	0.05752612	-0.1626905	-0.0999448	0.20846945	0.12109383	0.19698624	-0.02009432	-0.08386733	0.1716566	-0.07115287	0.18461359	-0.2599205	-0.25930965	0.05336316	0.23921674	-0.09109441	-0.21791048	0.110689715	0.028123116	0.087395914	-0.10256442	-0.09931806	0.088926554	-0.07583443	-0.08104580000000002	0.15318036	-0.017386983999999998	0.16884592	0.002343556	0.19879925	0.22748777	0.10537503	-0.18702220000000003	-0.14548664	0.19507985	-0.004681983	0.25109258	0.16904157	0.07274891	1.0
TCGA-A7-A13G-11A-51R-A13Q-07	0.035789974	0.06406033	-0.0034508359999999997	-0.1300098	0.14838052	0.089889705	0.014733518000000001	-0.07302752	-0.06725952	0.09630092	-0.16696618	0.027798127000000002	-0.26439705	-0.071392514	0.2598364	0.09525138	0.21736	0.089625865	0.19247353	-0.10511787	0.043130934	0.16836718	-0.03182578	-0.18655203	0.07674376	-0.047583985999999995	0.2798239	-0.044199847	0.2096991	-0.17896189999999998	-0.032326885	0.10215592	-0.117099784	-0.26379466	0.14066996	0.062430803	0.28097638	-0.03938306	0.15538515	0.124524914	0.08947197	0.043889977000000004	-0.12357692	-0.28201357	-0.077418275	0.01965553	0.12167161	-0.029785689	0.21275373	0.059353616	0.0
TCGA-A7-A13H-01A-11R-A22K-07	-0.06944627	-0.05954925	0.12668055	-0.15295365	0.17934477	-0.03368603	-0.1663821	-0.1140863	0.06331044	0.23764992	0.08447997	0.16104373	0.014820324	-0.12747271	-0.03687139	0.20882557	0.13245268	-0.122025885	-0.13620982	-0.12247261	0.093916185	0.21895923	-0.31991285	0.06359751	0.13828887	0.18470999999999999	0.15094419	0.058208845999999995	0.26667157	-0.13512143	-0.13330004	0.04073891	-0.13888814	0.019209828	0.17852704	-0.14309249999999998	0.07657881	-0.11418277	0.18790564	0.22609286	0.1620536	-0.110416576	-0.03068487	-0.054355625	0.035125986	0.01666369	-0.15970513	0.22732264	0.03757374	0.07780916	1.0
TCGA-A7-A26E-01A-11R-A169-07	-0.16551411	-0.18387353	-0.037502937	0.10846165599999999	0.05950804	0.014829852	0.13359775	-0.2588658	-0.17308787	-0.14000207	-0.10227451	-0.06316677	-0.19353236	-0.09844772	0.065171205	0.07183296	0.29079875	0.07044636	-0.21036758	-0.028785301	0.010571968000000001	0.18760058	0.046349682	-0.36338496	0.0007113391	-0.010154395	-0.04188357	-0.117227085	0.15279733	-0.13688807	-0.0769724	0.057895634	-0.1851029	0.2143174	-0.10921024	0.052284896	-0.17322548	-0.030988475	0.23445864	0.13737291	0.14753859	0.17258498	0.19814606	-0.10735265	-0.090621896	0.026015818	0.054047193	0.13278620000000002	-0.09556486	-0.06918059	1.0
TCGA-A7-A26E-01B-06R-A277-07	-0.002223728	0.17698191	-0.23639770000000004	0.076829106	-0.093215756	-0.057149287	-0.007334808000000001	-0.17821372	-0.14980397	0.17302045	-0.13212505	-0.023691392999999998	-0.32707179999999997	-0.06644874	0.080412336	-0.15467691	-0.008943224	0.19477865	-0.06919199	0.13053699	0.008004533000000001	0.17379041	-0.26445088	-0.09975146	0.19784947	0.22808774	0.13447377	-0.19881614	0.16404909	-0.11562534	-0.060769852	0.03460312	0.028704464	0.121325314	0.002224996	-0.10404949999999999	0.06653197	0.11922105	0.14703107	-0.0054432657	-0.03390252	-0.063980445	0.21522138	-0.25737306	0.08513273	0.0394876	-0.011151872	0.20400351	0.16292723	0.15946409	1.0
TCGA-A7-A26F-01B-04R-A22O-07	0.007573399999999999	0.172048	-0.19674954	-0.14303958	-0.071304485	-0.048508022000000005	-0.084227145	-0.16567488	-0.09974036	0.12087377	-0.29040855	-0.15536954	-0.16390954	-0.00045936054000000003	0.26956484	-0.15683924	0.15363538	0.07800666	-0.075591214	0.18286818	-0.05481464	0.09175586	-0.35757914	0.04407387	-0.0019691733	0.04412486400000001	0.14174692	-0.21261461	0.05306128	0.069658026	0.08634629	0.07380026599999999	-0.068393454	0.010569566	0.19796395	-0.09959231	0.111345954	-0.015169623	0.08834509	0.007959116	0.17097627	0.30004156	0.13368875	-0.19186660000000003	0.094112255	0.14243521	0.01800389	0.18589406	0.033096692999999996	-0.026019463	1.0
TCGA-A7-A26G-01A-21R-A169-07	-0.34568736	0.17166272	0.11774675	-0.05157810400000001	-0.040787917	0.020687696000000002	-0.083670035	0.14056809	0.0020782445	0.22363655	-0.11971689999999999	0.13209970000000001	-0.22008654	-0.20262524	-0.09456161	-0.051809352	0.1254362	0.04404098	0.20000744	0.11529903	0.11654666	0.009450191	0.10579385599999999	-0.04680018	0.11260452	-0.02394563	0.14217034	-0.27622548	0.036810823	-0.07683065	-0.07109529	0.124868415	0.08559532	-0.02052784	0.04297464	-0.14578986	0.13706423	0.17728129	0.1661986	0.026209307999999997	0.14341326	0.2619914	0.09675533	-0.029007806	-0.15939493	0.11287879	-0.14686768	0.14281656	0.21568024	-0.22720389	1.0
TCGA-A7-A26H-01A-11R-A169-07	0.08730245	-0.03842138	-0.18278381	-0.034424674	0.025123077	-0.08145877	-0.14933275	-0.1809839	-0.20090748	0.16198207	-0.011281679	-0.14936931	-0.18960051	-0.036561592999999996	0.070425935	0.2637372	0.10686473	0.0920525	-0.12197661	0.09947825	-0.08004329	-0.20282207	0.13986978	0.15167707	0.035887014	0.12845549	-0.20054159	-0.09276036	-0.0029661965	0.11814459	0.14219716	0.21556644	-0.19850163	-0.09908724599999999	-0.013676088999999999	0.16094252	0.044110897999999996	0.1719912	0.26007939999999996	0.027439205	0.05342981	0.29123464	-0.029122774	-0.09924975	0.19668339	0.21795186	0.044044062	0.18217893	-0.06378545599999999	-0.11003344	1.0
TCGA-A7-A26I-01B-06R-A22O-07	-0.23020646	0.13989808	-0.16783722	0.02160234	0.11813299999999999	0.010752406	0.09105215	-0.08414946	-0.0074827669999999995	0.29180120000000004	0.08461597	-0.052499972	-0.12774952	-0.011206203999999999	-0.014824657	-0.06612589	0.13161731	0.18796115	0.11899189999999998	0.012472371999999999	-0.027346669	-0.06532373	-0.19034137	-0.07682749	-0.017236246	0.30031392	0.24394421	-0.15529999	0.15054803	-0.21873035	0.119379476	0.12540175	0.12762198	-0.15949959	0.009833876	0.15314376	0.10600392	-0.07893443	0.067952365	-0.021428455	0.15946823	0.28211397	0.13553105	-0.216876	-0.12356852	0.12744668	-0.15367170000000002	0.16392653	0.0049255937	0.15562339	1.0
TCGA-A7-A26J-01A-11R-A277-07	-0.17813751	0.14209788	0.07118725	0.06376888	-0.016977900000000004	-0.2661403	0.13537018	-0.19516425	0.0033552804999999997	0.2530184	-0.27044696	0.05614646	-0.040682834	-0.09399403	0.028234407000000003	0.11064554	0.0054368936	0.27185040000000005	-0.08599394	-0.05401115	-0.05270143	-0.09622203	-0.27080342	-0.27997872	0.17758139999999997	0.063659854	0.09580186	-0.08351075	0.08008738	-0.00954503	0.16617851	0.13207552	0.08389708400000001	0.0787305	-0.08735458	-0.073905855	0.3141712	-0.051820517	0.060069542000000004	-0.06277491	0.024712948	-0.097496964	0.0117874	-0.25981864	-0.039287146	0.0763754	0.10098722	0.17517604	0.18615967	-0.017363998999999998	1.0
TCGA-A7-A26J-01B-02R-A277-07	-0.14764309	0.30229953	-0.08148384	-0.101368405	0.11553233	0.023528142000000002	-0.17001583	-0.12356132	-0.09240751	0.12524772	-0.08756338	-0.16289838	-0.33048920000000004	-0.07751527	-0.06313172	-0.07933372	0.17999062	-0.01360236	-0.0734952	0.13695987	0.069773585	0.10904165	0.07709159	-0.26203045	0.13816343	0.3202683	0.07703172	-0.081070095	0.10040644	-0.18952815	0.12550175	0.20127007	-0.0074679106000000006	0.116577685	-0.034189254	0.05619431	0.16726646	-0.0054513398	0.103966	0.10898319999999999	-0.036726076	0.19752556	0.1613773	-0.15794902	-0.039547175	0.025331615	-0.1665309	0.20759380000000002	0.0915433	-0.043794673	1.0
TCGA-A7-A3IY-01A-21R-A21T-07	0.088911735	0.20323935	0.06914881	0.08818772	0.11013344	0.18707556	-0.23242685	0.08476373599999999	-0.21800606	0.2570203	-0.24064428	-0.04134477	0.10434155	-0.10100847	-0.09931277	0.023860974	-0.028210675	0.21707669	0.16950789	-0.037539236000000004	-0.02108984	0.14356558	-0.22978020000000002	0.095947	-0.10127908	0.25347686	0.1565481	-0.2602487	0.0673561	0.15237293	-0.12994887	-0.08795749	0.06033223	-0.052768234000000004	0.068233415	-0.08021964	0.09174291	0.031628985	0.07360391	-0.04545129	-0.13977943	-0.116308585	-0.09488883599999999	-0.21594651	-0.038032647	0.23422910000000002	-0.050543934000000006	-0.09557856	0.1736166	-0.15383288	1.0
TCGA-A7-A3IZ-01A-11R-A213-07	-0.18065123	0.18020763	-0.18538729999999998	0.20899533	0.09445054	0.0012342944999999999	0.04104378	-0.17021567	-0.010463075	0.04941296	-0.03944193	0.03003965	-0.23545192	-0.18134701	0.15633513	-0.12302926	-0.089199	-0.08784823	0.14488412	0.09201874	-0.14776123	0.054473865999999996	0.07272932	-0.13775522	0.20655395	0.23256615	0.08529337	-0.07864832	0.16659693	0.08786328	0.13594684	-0.07683888	-0.035565436	-0.17709279	-0.11345976	0.100433916	0.12494748	0.16027744	-0.042478744000000006	0.23587959	-0.035450800000000005	0.19197135	0.10236638	-0.30984652	0.015481163999999999	0.13293454	0.1501409	0.03204238	0.27795023	0.049183465999999995	1.0
TCGA-A7-A3J0-01A-11R-A213-07	-0.26806524	0.22368953	0.072145104	0.025775805	-0.056799076	0.23635283	-0.22191446	-0.18967909	-0.20364949	-0.17655052	-0.12952536	-0.07818061	-0.30939970000000006	-0.06216181	0.025233734	0.04932929	0.10173578	0.14824326	-0.06025719	0.072927795	0.19913754	0.005596455699999999	0.06950413	-0.030816155	-0.01056285	0.059114232999999995	0.06874959	-0.22707857	0.21909901	0.12077629999999999	0.062325805	-0.021183973	-0.06235198	0.15303285	0.020611746	0.15339442	0.005935721	0.022987252000000003	-0.017082172	0.085265025	-0.019563435	0.17942852	-0.11293312	-0.30681005	-0.103248514	-0.15492459	-0.20272265	0.16668427	0.104671195	0.053040903	1.0
TCGA-A7-A3J1-01A-11R-A213-07	-0.09049115	0.20845202	-0.049888775	-0.01576892	0.11250986	-0.22095287	0.19521104	-0.14878494	0.19628768	0.061065238	-0.24105865	-0.053725097	0.16694260000000002	-0.08400456	0.09004213	-0.016520143	-0.076637745	0.073539585	-0.030401552000000002	0.08081153	-0.17831874	0.12801768	-0.26175085	-0.034423046	-0.15708084	0.22882701	0.23706286	0.045850493	0.19203797	0.13183987	-0.13741833	-0.06480393599999999	-0.037043907	0.09678861	0.14980932	0.0030224742	0.18133338	-0.016960552	-0.009831973	0.15544288	-0.010892622	0.28472176	-0.1582789	0.17742471	0.19231455	0.09493846	-0.09119518	-0.13887751	0.12856346	-0.09781819	1.0
TCGA-A7-A3RF-01A-11R-A22K-07	-0.10870285	-0.12301806	-0.15438825	-0.20404421	-0.18848546	0.09455278	-0.06662397	-0.17993149	-0.2077784	0.1453648	-0.18962175	-0.16963229	-0.21986129999999998	-0.06885678	0.19320494	0.21463513	0.16608720000000002	0.010223906500000001	-0.13603868	0.18487679999999998	-0.1579806	0.0867025	-0.23426677	-0.22005652	0.21139076	0.020554448	0.11246848	-0.12975810000000002	-0.13154517	-0.10265455400000001	0.039363075	-0.11623322	-0.10287566	-0.08441231	0.04236303599999999	0.019117417	-0.15062687	0.05139481	0.18284339	-0.040029794	0.14994457	0.06894824	0.013528762	-0.05256225	0.12552507	0.20607682	0.08914058	0.16856623	0.09546336	-0.11411151	1.0
